Full Design,Target Ratio Objective,Stiffness Objective,Feasibility Score,Stability Score
100000001110000000000101001110001101,0.019879411150473054,-0.6150959726776,1.0,1.0
100000001100000000000100001000100101,0.09719102074521482,-0.9147108104710638,1.0,0.9
100000001100000000000100001100000101,0.059638233451419186,-0.8937847873379051,1.0,1.0
100000001110000000000101001100001101,0.02981911672570959,-0.6670974743304074,1.0,1.0
100000001110000000000100001100000101,0.049698527876182653,-0.8028460464800199,1.0,1.0
101000001010000011000101001100001101,0.009939705575236527,-0.5706154278456519,1.0,1.0
100000001110000000000100001100000101,0.049698527876182653,-0.8028460464800199,1.0,1.0
100000001100000000000100001100000101,0.059638233451419186,-0.8937847873379051,1.0,1.0
101100001010000001000100001000100101,0.03718127421479806,-0.7239677883528387,1.0,1.0
100000001100000000000100001000100101,0.09719102074521482,-0.9147108104710638,1.0,0.9
101000001010000011000101001110001101,0.0,-0.5321342441674862,1.0,1.0
100000001100000000000101001110001101,0.02981911672570959,-0.6670974743304074,1.0,1.0
100000001110000000000100001100000101,0.049698527876182653,-0.8028460464800199,1.0,1.0
100000001100000000000100001100000101,0.059638233451419186,-0.8937847873379051,1.0,1.0
100000001100000000000100001100000101,0.059638233451419186,-0.8937847873379051,1.0,1.0
100000001100000000000100001100000101,0.059638233451419186,-0.8937847873379051,1.0,1.0
100000001100000000000100001100000101,0.059638233451419186,-0.8937847873379051,1.0,1.0
100000001110000000000100001100000101,0.049698527876182653,-0.8028460464800199,1.0,1.0
100000001110000000000101001100001101,0.02981911672570959,-0.6670974743304074,1.0,1.0
100000001100000000000100001100000101,0.059638233451419186,-0.8937847873379051,1.0,1.0
100000001100000000000101001110001101,0.02981911672570959,-0.6670974743304074,1.0,1.0
100000001110000000000101001100011101,0.028325963172588835,-0.62726605832498,1.0,1.0
100000001110000000000101001100001101,0.02981911672570959,-0.6670974743304074,1.0,1.0
100000001010000000000100001000100101,0.09121103967474745,-0.9122374081276307,1.0,0.9
100000001110000000000101001110001101,0.019879411150473054,-0.6150959726776,1.0,1.0
101100001010000001000100001000100101,0.03718127421479806,-0.7239677883528387,1.0,1.0
101100001010000001000100001100000101,0.02981911672570959,-0.6670974743304074,1.0,1.0
100000001010000000000100001000100101,0.09121103967474745,-0.9122374081276307,1.0,0.9
100000001110000000000100001100000101,0.049698527876182653,-0.8028460464800199,1.0,1.0
100000001110000000000101001100001101,0.02981911672570959,-0.6670974743304074,1.0,1.0
100000001110000000000100001100000101,0.049698527876182653,-0.8028460464800199,1.0,1.0
100000001110000000000101001100001101,0.02981911672570959,-0.6670974743304074,1.0,1.0
100000001110000000000101001100001101,0.02981911672570959,-0.6670974743304074,1.0,1.0
100000001110000000000100001100000101,0.049698527876182653,-0.8028460464800199,1.0,1.0
100000001010000010000101001100001101,0.029819116725709582,-0.6670974743304072,1.0,1.0
100000001100000000000100001100000101,0.059638233451419186,-0.8937847873379051,1.0,1.0
100000001110000000000101001110001101,0.019879411150473054,-0.6150959726776,1.0,1.0
100000001100000000000100001100000101,0.059638233451419186,-0.8937847873379051,1.0,1.0
101100001010000001000100001000100101,0.03718127421479806,-0.7239677883528387,1.0,1.0
100000001010000000000100001000100101,0.09121103967474745,-0.9122374081276307,1.0,0.9
100000001100000000000101001110001101,0.02981911672570959,-0.6670974743304074,1.0,1.0
100000001110000000000100001100000101,0.049698527876182653,-0.8028460464800199,1.0,1.0
100000001110000000000100001100000101,0.049698527876182653,-0.8028460464800199,1.0,1.0
100000001100000000000100001100000101,0.059638233451419186,-0.8937847873379051,1.0,1.0
100000001110000000000101001110001101,0.019879411150473054,-0.6150959726776,1.0,1.0
100000001110000000000100001100000101,0.049698527876182653,-0.8028460464800199,1.0,1.0
100000001110000000000101001100001101,0.02981911672570959,-0.6670974743304074,1.0,1.0
100000001100000000000100001000100101,0.09719102074521482,-0.9147108104710638,1.0,0.9
101100001010000001000100001100000101,0.02981911672570959,-0.6670974743304074,1.0,1.0
100000001110000000000100001100000101,0.049698527876182653,-0.8028460464800199,1.0,1.0
100000001100000000000100001100000101,0.059638233451419186,-0.8937847873379051,1.0,1.0
100000001100000000000100001100000101,0.059638233451419186,-0.8937847873379051,1.0,1.0
100000001110000010000100001100000101,0.0472099386209814,-0.7388530201040999,1.0,1.0
101000001100000001000100001100100101,0.04375781017861623,-0.7328520114198974,1.0,1.0
100000001100000000000100001100000101,0.059638233451419186,-0.8937847873379051,1.0,1.0
100000001010000000000100001000100101,0.09121103967474745,-0.9122374081276307,1.0,0.9
100000001100000000000101001100001101,0.03975882230094612,-0.7287036029625051,1.0,1.0
100000001110000000000100001100000101,0.049698527876182653,-0.8028460464800199,1.0,1.0
100000001110000000000100001100000101,0.049698527876182653,-0.8028460464800199,1.0,1.0
100000001110000000000100001100000101,0.049698527876182653,-0.8028460464800199,1.0,1.0
100000001110000000000100001000100101,0.054309026621405014,-0.8599205865286285,1.0,1.0
100000001110000000000101001110001101,0.019879411150473054,-0.6150959726776,1.0,1.0
101000001110000001000101001100001101,0.009939705575236527,-0.5706154278456519,1.0,1.0
101100001010000011000101001100001101,0.009441987724196273,-0.5449619390846638,1.0,1.0
100000001100000000000100001100000101,0.059638233451419186,-0.8937847873379051,1.0,1.0
100000001100000000000100001110000101,0.049698527876182653,-0.8028460464800199,1.0,1.0
100000001010000000000100001000100101,0.09121103967474745,-0.9122374081276307,1.0,0.9
101100001010000001000100001000100101,0.03718127421479806,-0.7239677883528387,1.0,1.0
101100001010000001000101001100001101,0.009939705575236527,-0.5706154278456519,1.0,1.0
101100001010000011000101001100001101,0.009441987724196273,-0.5449619390846638,1.0,1.0
100000001100000000000100001100000101,0.059638233451419186,-0.8937847873379051,1.0,1.0
100000001110000000000100001100000101,0.049698527876182653,-0.8028460464800199,1.0,1.0
100000001110000000000101001100001101,0.02981911672570959,-0.6670974743304074,1.0,1.0
100000001110000000000101001110001101,0.019879411150473054,-0.6150959726776,1.0,1.0
100000001100000000000100001000100101,0.09719102074521482,-0.9147108104710638,1.0,0.9
100000001100000000000101001110001101,0.02981911672570959,-0.6670974743304074,1.0,1.0
101100001010000001000100001000100101,0.03718127421479806,-0.7239677883528387,1.0,1.0
100000001110000000000101001110001101,0.019879411150473054,-0.6150959726776,1.0,1.0
100000001100000000000100001100000101,0.059638233451419186,-0.8937847873379051,1.0,1.0
100000001010000010000101001100001101,0.029819116725709582,-0.6670974743304072,1.0,1.0
100000001010000000000100001000100101,0.09121103967474745,-0.9122374081276307,1.0,0.9
100000001010000000000100001000100101,0.09121103967474745,-0.9122374081276307,1.0,0.9
100000001110000000000101001110001101,0.019879411150473054,-0.6150959726776,1.0,1.0
100000001110000000000101001110001101,0.019879411150473054,-0.6150959726776,1.0,1.0
100000001100000000000100001100000101,0.059638233451419186,-0.8937847873379051,1.0,1.0
100000001100000000000100001100000101,0.059638233451419186,-0.8937847873379051,1.0,1.0
101000001010000011000101001000101101,0.020053521808191102,-0.6251344947560631,1.0,1.0
100000001010000000000100001000100101,0.09121103967474745,-0.9122374081276307,1.0,0.9
100000001010000000000100001000100101,0.09121103967474745,-0.9122374081276307,1.0,0.9
100000001100000000000100001100000101,0.059638233451419186,-0.8937847873379051,1.0,1.0
100000001010000000000100001000100101,0.09121103967474745,-0.9122374081276307,1.0,0.9
101100001010000001000100000000100101,0.03283536847171948,-0.6851272849423612,1.0,1.0
101000001100000001000100001100100101,0.04375781017861623,-0.7328520114198974,1.0,1.0
100000001110000000000100001000100101,0.054309026621405014,-0.8599205865286285,1.0,1.0
101000001010000011000101001100001101,0.009939705575236527,-0.5706154278456519,1.0,1.0
100000001110000000000101001110001101,0.019879411150473054,-0.6150959726776,1.0,1.0
100000001100000000000100001100000101,0.059638233451419186,-0.8937847873379051,1.0,1.0
100000001010000000000100001000100101,0.09121103967474745,-0.9122374081276307,1.0,0.9
100000001110000000000101001110011101,0.018883975448392546,-0.5832246426841102,1.0,1.0
100000001110000000000100001100000101,0.049698527876182653,-0.8028460464800199,1.0,1.0
