Full Design,Target Ratio Objective,Stiffness Objective,Feasibility Score,Stability Score
101100001000000001000101101010011101,0.009441987724196273,-0.5449619390846638,1.0,1.0
100100001000000000000100001010010101,0.049698527876182653,-0.8028460464800199,1.0,1.0
100010001000000000000100001000010101,0.09719102074521484,-0.914710810471064,1.0,0.9
101000001000000011000101001010011101,0.009939705575236527,-0.5706154278456519,1.0,1.0
101000001000000011000101001010011101,0.009939705575236527,-0.5706154278456519,1.0,1.0
100100001010000000000100001010010101,0.03975882230094612,-0.7287036029625051,1.0,1.0
100100001000000000000100001010010101,0.049698527876182653,-0.8028460464800199,1.0,1.0
101000001110000001000100001010010101,0.01987941115047306,-0.6150959726776001,1.0,1.0
100100001000000000000100101010010101,0.0472099386209814,-0.7388530201040999,1.0,1.0
100010001000000000000100001010010101,0.05430902662140502,-0.8599205865286285,1.0,1.0
100100001000000000000100001000010101,0.059638233451419186,-0.8937847873379051,1.0,1.0
101100001000000001000100001010010101,0.02981911672570959,-0.6670974743304074,1.0,1.0
100010001000000000000100001000010101,0.09719102074521484,-0.914710810471064,1.0,0.9
100100001000000000000100001000010101,0.059638233451419186,-0.8937847873379051,1.0,1.0
101010001000000001000100001010010101,0.03718127421479807,-0.7239677883528388,1.0,1.0
100100001000000000000100001000010101,0.059638233451419186,-0.8937847873379051,1.0,1.0
100010001000000000000100001000010101,0.09719102074521484,-0.914710810471064,1.0,0.9
100100001010000000000100001010010101,0.03975882230094612,-0.7287036029625051,1.0,1.0
100010001000000000000100001010010101,0.05430902662140502,-0.8599205865286285,1.0,1.0
101010001000000001000100001010010101,0.03718127421479807,-0.7239677883528388,1.0,1.0
100010001000000000000100001010010101,0.05430902662140502,-0.8599205865286285,1.0,1.0
100010001000000000000100001000010101,0.09719102074521484,-0.914710810471064,1.0,0.9
100100001000000000000100001000010101,0.059638233451419186,-0.8937847873379051,1.0,1.0
100010001000000000000100001000010101,0.09719102074521484,-0.914710810471064,1.0,0.9
100100001000000000000100101010000101,0.049698527876182653,-0.8028460464800199,1.0,1.0
100010001000000000000100001010010101,0.05430902662140502,-0.8599205865286285,1.0,1.0
101100001000000001000101001010011101,0.009939705575236527,-0.5706154278456519,1.0,1.0
100100001010000000000100001010010101,0.03975882230094612,-0.7287036029625051,1.0,1.0
100100001000000010000100001010010101,0.0472099386209814,-0.7388530201040999,1.0,1.0
100100001000000000000100001000010101,0.059638233451419186,-0.8937847873379051,1.0,1.0
100000001000000010000101001000011101,0.03975882230094612,-0.7287036029625051,1.0,1.0
101100001000000001000100001000010101,0.03975882230094612,-0.7287036029625051,1.0,1.0
101010001000000001000100001110010101,0.03556598075249552,-0.6807454831661484,1.0,1.0
100010001000000000000100001010010101,0.05430902662140502,-0.8599205865286285,1.0,1.0
100000001000000010000101001000011101,0.03975882230094612,-0.7287036029625051,1.0,1.0
100000001000000100000100001000010101,0.09719102074521484,-0.914710810471064,1.0,0.9
101010001000000001000101001110011101,0.019182321900254106,-0.5959939265397627,1.0,1.0
100100001010000000000100001000010101,0.049698527876182653,-0.8028460464800199,1.0,1.0
101100001000000001000101001010011101,0.009939705575236527,-0.5706154278456519,1.0,1.0
101100001000000001000101001010011101,0.009939705575236527,-0.5706154278456519,1.0,1.0
100100001000000000000100001010010101,0.049698527876182653,-0.8028460464800199,1.0,1.0
101100001000000001000100001010010101,0.02981911672570959,-0.6670974743304074,1.0,1.0
101100001000000001000100001010010101,0.02981911672570959,-0.6670974743304074,1.0,1.0
100000001000000010000101001010011101,0.02981911672570959,-0.6670974743304074,1.0,1.0
100010001000000000000101001010011101,0.03718127421479806,-0.7239677883528386,1.0,1.0
100100001000000000000100001010010101,0.049698527876182653,-0.8028460464800199,1.0,1.0
101010001000000001000100001110010101,0.03556598075249552,-0.6807454831661484,1.0,1.0
100100001000000000000100001010010101,0.049698527876182653,-0.8028460464800199,1.0,1.0
101100001000000001000100001010010101,0.02981911672570959,-0.6670974743304074,1.0,1.0
100010001000000000000100001010010101,0.05430902662140502,-0.8599205865286285,1.0,1.0
100010001000000000000100001000010101,0.09719102074521484,-0.914710810471064,1.0,0.9
100010001000000000000100001000010101,0.09719102074521484,-0.914710810471064,1.0,0.9
101010001000000001000100001110010101,0.03556598075249552,-0.6807454831661484,1.0,1.0
101100001000000001000101001000011101,0.019879411150473054,-0.6150959726776,1.0,1.0
100100001000000000000100001010010101,0.049698527876182653,-0.8028460464800199,1.0,1.0
100100001000000000000100001010010101,0.049698527876182653,-0.8028460464800199,1.0,1.0
100100001000000000000100001010010101,0.049698527876182653,-0.8028460464800199,1.0,1.0
101010001000000001000100001010010101,0.03718127421479807,-0.7239677883528388,1.0,1.0
100100001000000000000100001010010101,0.049698527876182653,-0.8028460464800199,1.0,1.0
100010001000000000000100001000010101,0.09719102074521484,-0.914710810471064,1.0,0.9
100100001000000000000100001010010101,0.049698527876182653,-0.8028460464800199,1.0,1.0
101000001110000001000101001000011101,0.009939705575236527,-0.5706154278456519,1.0,1.0
100010001000000000000101001110011101,0.03556598075249552,-0.6807454831661484,1.0,1.0
100100001000000000000100001000010101,0.059638233451419186,-0.8937847873379051,1.0,1.0
100010001000000000000101001010011101,0.03718127421479806,-0.7239677883528386,1.0,1.0
100000001000000010000100001000010101,0.059638233451419186,-0.8937847873379051,1.0,1.0
100100001000000010000100001010010101,0.0472099386209814,-0.7388530201040999,1.0,1.0
100000001000000010000100001010010101,0.049698527876182653,-0.8028460464800199,1.0,1.0
101100001000000001000101001010011101,0.009939705575236527,-0.5706154278456519,1.0,1.0
100100001010000000000100001000010101,0.049698527876182653,-0.8028460464800199,1.0,1.0
101100001000000001000101001010011101,0.009939705575236527,-0.5706154278456519,1.0,1.0
101100001000000001000101001010011101,0.009939705575236527,-0.5706154278456519,1.0,1.0
100100001000000000000100001010010101,0.049698527876182653,-0.8028460464800199,1.0,1.0
100100001000000000000101001110011101,0.028325963172588835,-0.62726605832498,1.0,1.0
101100001000000001000100001010010101,0.02981911672570959,-0.6670974743304074,1.0,1.0
100010001000000000000101001010011101,0.03718127421479806,-0.7239677883528386,1.0,1.0
101010001000000001000100001010010101,0.03718127421479807,-0.7239677883528388,1.0,1.0
101100001000000001000100001010010101,0.02981911672570959,-0.6670974743304074,1.0,1.0
101100001010000001000101001010011101,0.0,-0.5321342441674862,1.0,1.0
101000001110000001000100001010010101,0.01987941115047306,-0.6150959726776001,1.0,1.0
100100001000000000000100001010010101,0.049698527876182653,-0.8028460464800199,1.0,1.0
100100001000000000000101001010011101,0.02981911672570959,-0.6670974743304074,1.0,1.0
101100001000000001000101001010011101,0.009939705575236527,-0.5706154278456519,1.0,1.0
100100001000000000000100001010010101,0.049698527876182653,-0.8028460464800199,1.0,1.0
101100001000000001000100001010010101,0.02981911672570959,-0.6670974743304074,1.0,1.0
001010001000000001000100001010010001,0.026986894522177122,-0.6389929830975298,1.0,1.0
101000001110000001000100001010010101,0.01987941115047306,-0.6150959726776001,1.0,1.0
101010001000000001000100001010010101,0.03718127421479807,-0.7239677883528388,1.0,1.0
100100001000000000000100001010010101,0.049698527876182653,-0.8028460464800199,1.0,1.0
100010001000000000000101001010011101,0.03718127421479806,-0.7239677883528386,1.0,1.0
100100001000000000000100001010010101,0.049698527876182653,-0.8028460464800199,1.0,1.0
100010001000000000000100001010010101,0.05430902662140502,-0.8599205865286285,1.0,1.0
101000001110000001000100001010010101,0.01987941115047306,-0.6150959726776001,1.0,1.0
100000001000000010000101001010011101,0.02981911672570959,-0.6670974743304074,1.0,1.0
101010001000000001000100001010010101,0.03718127421479807,-0.7239677883528388,1.0,1.0
100100001000000000000100001010010101,0.049698527876182653,-0.8028460464800199,1.0,1.0
101100001000000001000101001010011101,0.009939705575236527,-0.5706154278456519,1.0,1.0
101010001000000001000100001010010101,0.03718127421479807,-0.7239677883528388,1.0,1.0
101100001000000001000101001010011101,0.009939705575236527,-0.5706154278456519,1.0,1.0
101100001000000001000101001010011101,0.009939705575236527,-0.5706154278456519,1.0,1.0
