Full Design,Target Ratio Objective,Stiffness Objective,Feasibility Score,Stability Score
100000001100000000000101001110001101,0.02981911672570959,-0.6670974743304074,1.0,1.0
100000001100000000000100011000000101,0.09719102074521482,-0.914710810471064,1.0,0.9
100000001100000000000101001110001101,0.02981911672570959,-0.6670974743304074,1.0,1.0
100000001100000000000100001100000101,0.059638233451419186,-0.8937847873379051,1.0,1.0
100000001110000000000101001100001101,0.02981911672570959,-0.6670974743304074,1.0,1.0
101000001100000001000100001110000101,0.029819116725709582,-0.6670974743304072,1.0,1.0
100000001100000000000101001110001101,0.02981911672570959,-0.6670974743304074,1.0,1.0
100000001100000000000100011000000101,0.09719102074521482,-0.914710810471064,1.0,0.9
100000001100000000000101001100001101,0.03975882230094612,-0.7287036029625051,1.0,1.0
100000001100000000000100011000000101,0.09719102074521482,-0.914710810471064,1.0,0.9
100000001100000000000101001100001101,0.03975882230094612,-0.7287036029625051,1.0,1.0
100000001110000000000101001100001101,0.02981911672570959,-0.6670974743304074,1.0,1.0
101000001110000001000101001100001101,0.009939705575236527,-0.5706154278456519,1.0,1.0
100000001100000000000101001110001101,0.02981911672570959,-0.6670974743304074,1.0,1.0
100000001100000000000101001110001101,0.02981911672570959,-0.6670974743304074,1.0,1.0
100000001100000000000100001100000101,0.059638233451419186,-0.8937847873379051,1.0,1.0
100000001100000000000101001100001101,0.03975882230094612,-0.7287036029625051,1.0,1.0
100000001100000000000100001100000101,0.059638233451419186,-0.8937847873379051,1.0,1.0
100000001110000000000100011000000101,0.05430902662140502,-0.8599205865286284,1.0,1.0
100000001100000000000100001100000101,0.059638233451419186,-0.8937847873379051,1.0,1.0
100000001100000000000101001100001101,0.03975882230094612,-0.7287036029625051,1.0,1.0
100000001100000000000100001100000101,0.059638233451419186,-0.8937847873379051,1.0,1.0
100000001110000000000101001110001101,0.019879411150473054,-0.6150959726776,1.0,1.0
100000001100000000000100011000000101,0.09719102074521482,-0.914710810471064,1.0,0.9
101000001110000001000101001100001101,0.009939705575236527,-0.5706154278456519,1.0,1.0
100000001100000000000101001110001101,0.02981911672570959,-0.6670974743304074,1.0,1.0
100000001100000000000101001110001101,0.02981911672570959,-0.6670974743304074,1.0,1.0
100000001100000000000101001100001101,0.03975882230094612,-0.7287036029625051,1.0,1.0
100000001100000000000100011000000101,0.09719102074521482,-0.914710810471064,1.0,0.9
100000001110000000000101011000001101,0.03718127421479805,-0.7239677883528386,1.0,1.0
100000001110000000000101001100001101,0.02981911672570959,-0.6670974743304074,1.0,1.0
100000001100000000000101001100001101,0.03975882230094612,-0.7287036029625051,1.0,1.0
100000001111000000000100001100000101,0.0472099386209814,-0.7388530201040999,1.0,1.0
100000001100000000000101001110001101,0.02981911672570959,-0.6670974743304074,1.0,1.0
100000001100000000000100001110000101,0.049698527876182653,-0.8028460464800199,1.0,1.0
100000001100000000000101001100001101,0.03975882230094612,-0.7287036029625051,1.0,1.0
100000001110000000000101011000001101,0.03718127421479805,-0.7239677883528386,1.0,1.0
100000001110000000000101011000001101,0.03718127421479805,-0.7239677883528386,1.0,1.0
100000001100000000000101001110001101,0.02981911672570959,-0.6670974743304074,1.0,1.0
100000001100000000000101001100001101,0.03975882230094612,-0.7287036029625051,1.0,1.0
100000001100000000000100011000000101,0.09719102074521482,-0.914710810471064,1.0,0.9
100000001110000000000101001110001101,0.019879411150473054,-0.6150959726776,1.0,1.0
100000001110000000000101001100001101,0.02981911672570959,-0.6670974743304074,1.0,1.0
100000001100000000000100001110000101,0.049698527876182653,-0.8028460464800199,1.0,1.0
100000001100000000000101001100001101,0.03975882230094612,-0.7287036029625051,1.0,1.0
100000001100000000000101001100001101,0.03975882230094612,-0.7287036029625051,1.0,1.0
101000001110000001000101001100001101,0.009939705575236527,-0.5706154278456519,1.0,1.0
100000001110000000000100001100000101,0.049698527876182653,-0.8028460464800199,1.0,1.0
100000001100000000000101001110001101,0.02981911672570959,-0.6670974743304074,1.0,1.0
100000001100000000000100011000000101,0.09719102074521482,-0.914710810471064,1.0,0.9
100000001100000000000100011000000101,0.09719102074521482,-0.914710810471064,1.0,0.9
100000001110000000000101001110001101,0.019879411150473054,-0.6150959726776,1.0,1.0
100000001100000000000101001110001101,0.02981911672570959,-0.6670974743304074,1.0,1.0
100000001100000000000100001110000101,0.049698527876182653,-0.8028460464800199,1.0,1.0
100000001110000000000101011000001101,0.03718127421479805,-0.7239677883528386,1.0,1.0
100000001100000000000100011000000101,0.09719102074521482,-0.914710810471064,1.0,0.9
100000001100000000000101001100001101,0.03975882230094612,-0.7287036029625051,1.0,1.0
100000001100000000000100001100000101,0.059638233451419186,-0.8937847873379051,1.0,1.0
100000001110000000000100011000000101,0.05430902662140502,-0.8599205865286284,1.0,1.0
100000001100000000000100001110000101,0.049698527876182653,-0.8028460464800199,1.0,1.0
100000001100000000000100011000000101,0.09719102074521482,-0.914710810471064,1.0,0.9
100000001100000000000101001100001101,0.03975882230094612,-0.7287036029625051,1.0,1.0
101000001110000001000101001100001101,0.009939705575236527,-0.5706154278456519,1.0,1.0
100000001100000000000101001100001101,0.03975882230094612,-0.7287036029625051,1.0,1.0
100000001100000000000101001110001101,0.02981911672570959,-0.6670974743304074,1.0,1.0
100000001100000000000101001100001101,0.03975882230094612,-0.7287036029625051,1.0,1.0
101000001110000001000101001110001101,0.0,-0.5321342441674862,1.0,1.0
100000001100000000000101001100001101,0.03975882230094612,-0.7287036029625051,1.0,1.0
100000001110000000000101001110001101,0.019879411150473054,-0.6150959726776,1.0,1.0
100000001100000000000100001110000101,0.049698527876182653,-0.8028460464800199,1.0,1.0
100000001100000010000100001110000101,0.0472099386209814,-0.7388530201040999,1.0,1.0
100000001110000000000101011000001101,0.03718127421479805,-0.7239677883528386,1.0,1.0
100000001110000000000100011000000101,0.05430902662140502,-0.8599205865286284,1.0,1.0
101000001110000001000101001110001101,0.0,-0.5321342441674862,1.0,1.0
100000001110000000000101001110001101,0.019879411150473054,-0.6150959726776,1.0,1.0
100000001100000000000101001110001101,0.02981911672570959,-0.6670974743304074,1.0,1.0
100000001100000000000101001100001101,0.03975882230094612,-0.7287036029625051,1.0,1.0
101000001110000001000101001110001101,0.0,-0.5321342441674862,1.0,1.0
100000001100000000000100001100000101,0.059638233451419186,-0.8937847873379051,1.0,1.0
100000001110000000000100011000000101,0.05430902662140502,-0.8599205865286284,1.0,1.0
100000001100000000000100011000000101,0.09719102074521482,-0.914710810471064,1.0,0.9
100000001100000000000100011000000101,0.09719102074521482,-0.914710810471064,1.0,0.9
100000001100000000000101001110001101,0.02981911672570959,-0.6670974743304074,1.0,1.0
100000001100000000000100011000000101,0.09719102074521482,-0.914710810471064,1.0,0.9
101000001110000001000101001100101101,0.019182321900254113,-0.5959939265397626,1.0,1.0
100000001100000000000101001110001101,0.02981911672570959,-0.6670974743304074,1.0,1.0
100000001100000000000100011000000101,0.09719102074521482,-0.914710810471064,1.0,0.9
100000001100000000000100001100000101,0.059638233451419186,-0.8937847873379051,1.0,1.0
100000001100000000000100001110000101,0.049698527876182653,-0.8028460464800199,1.0,1.0
100000001100000000000100011000000101,0.09719102074521482,-0.914710810471064,1.0,0.9
100000001100000000000101001111001101,0.028325963172588835,-0.62726605832498,1.0,1.0
100000001100000000000101001110001101,0.02981911672570959,-0.6670974743304074,1.0,1.0
100000001100000000000101001110001101,0.02981911672570959,-0.6670974743304074,1.0,1.0
100000001100000000000101001100001101,0.03975882230094612,-0.7287036029625051,1.0,1.0
100000001100000000000101001100001101,0.03975882230094612,-0.7287036029625051,1.0,1.0
101000001110000001000101001110001101,0.0,-0.5321342441674862,1.0,1.0
100000001100000000000100001110000101,0.049698527876182653,-0.8028460464800199,1.0,1.0
100000001100000000000101000110001101,0.02336268418401878,-0.6200571139865847,1.0,1.0
100000001100000000000100001110000101,0.049698527876182653,-0.8028460464800199,1.0,1.0
100000001110000000000101001110001101,0.019879411150473054,-0.6150959726776,1.0,1.0
