Full Design,Target Ratio Objective,Stiffness Objective,Feasibility Score,Stability Score
101000001011000001000101101010001101,0.0,-0.5321342441674862,1.0,1.0
101100001010000001000101011000001101,0.020053521808191102,-0.6251344947560631,1.0,1.0
100100001001000000000100001110000101,0.0472099386209814,-0.7388530201040999,1.0,1.0
100100001010000000000101001111001101,0.018883975448392546,-0.5832246426841102,1.0,1.0
100000001001000000000100001100000101,0.059638233451419186,-0.8937847873379051,1.0,1.0
100100001010000000000101001110001101,0.019879411150473054,-0.6150959726776,1.0,1.0
100000001001000000000100001100000101,0.059638233451419186,-0.8937847873379051,1.0,1.0
100000001001000000000101001110001101,0.02981911672570959,-0.6670974743304074,1.0,1.0
100000001010000010000101001110011101,0.018883975448392546,-0.5832246426841103,1.0,1.0
100000001001000000000101001110001101,0.02981911672570959,-0.6670974743304074,1.0,1.0
100000001001000000000101001110001101,0.02981911672570959,-0.6670974743304074,1.0,1.0
100000001001000000000101001110001101,0.02981911672570959,-0.6670974743304074,1.0,1.0
100100001010000000000101011000001101,0.03718127421479805,-0.7239677883528386,1.0,1.0
100100001010000000000101001100001101,0.02981911672570959,-0.6670974743304074,1.0,1.0
100100001010000000000101001110001101,0.019879411150473054,-0.6150959726776,1.0,1.0
100100001001000000000100001110000101,0.0472099386209814,-0.7388530201040999,1.0,1.0
100100001010000000000101001110001101,0.019879411150473054,-0.6150959726776,1.0,1.0
100000001001000000000101001110001101,0.02981911672570959,-0.6670974743304074,1.0,1.0
100000001011000000000101001100001101,0.029819116725709582,-0.6670974743304072,1.0,1.0
100100001010000000000101001110001101,0.019879411150473054,-0.6150959726776,1.0,1.0
100000001001000000000100001100000101,0.059638233451419186,-0.8937847873379051,1.0,1.0
101000001011000001000101001110001101,0.0,-0.5321342441674862,1.0,1.0
100000001001000000000100001110000101,0.049698527876182653,-0.8028460464800199,1.0,1.0
100000001001000000000101001100001101,0.03975882230094612,-0.7287036029625051,1.0,1.0
100100001010000000000101001110001101,0.019879411150473054,-0.6150959726776,1.0,1.0
100100001010000000000101001100001101,0.02981911672570959,-0.6670974743304074,1.0,1.0
101100001010000001000101001110001101,0.0,-0.5321342441674862,1.0,1.0
101100001011000001000101001100001101,0.009441987724196273,-0.5449619390846638,1.0,1.0
100000001001000000000101001100001101,0.03975882230094612,-0.7287036029625051,1.0,1.0
100000001001000000000100001100000101,0.059638233451419186,-0.8937847873379051,1.0,1.0
100000001001000000000101001110001101,0.02981911672570959,-0.6670974743304074,1.0,1.0
100000001001000000000101001100001101,0.03975882230094612,-0.7287036029625051,1.0,1.0
100100001010000000000101011000001101,0.03718127421479805,-0.7239677883528386,1.0,1.0
100000001001000000000100001110000101,0.049698527876182653,-0.8028460464800199,1.0,1.0
100100001001000000000100001110000101,0.0472099386209814,-0.7388530201040999,1.0,1.0
100100001010000000000100011000000101,0.05430902662140502,-0.8599205865286284,1.0,1.0
100000001001000000000101001100001101,0.03975882230094612,-0.7287036029625051,1.0,1.0
100000001101000000000100001110000101,0.0472099386209814,-0.7388530201040999,1.0,1.0
100000001001000000000100001100000101,0.059638233451419186,-0.8937847873379051,1.0,1.0
101000001011000001000101101010001101,0.0,-0.5321342441674862,1.0,1.0
100100001010000000000100011000000101,0.05430902662140502,-0.8599205865286284,1.0,1.0
100100001010000000000101001100001101,0.02981911672570959,-0.6670974743304074,1.0,1.0
100000001001000000000101001110001101,0.02981911672570959,-0.6670974743304074,1.0,1.0
100000001001000000000101001110001101,0.02981911672570959,-0.6670974743304074,1.0,1.0
100100001010000000000100011000000101,0.05430902662140502,-0.8599205865286284,1.0,1.0
100100001010000000000101001110001101,0.019879411150473054,-0.6150959726776,1.0,1.0
101000001011000001000101001100001101,0.009939705575236527,-0.5706154278456519,1.0,1.0
101000001011000001000101001110001101,0.0,-0.5321342441674862,1.0,1.0
100000001001000000000100001110000101,0.049698527876182653,-0.8028460464800199,1.0,1.0
101000001011000001000101001100001101,0.009939705575236527,-0.5706154278456519,1.0,1.0
100100001001000000000100001110000101,0.0472099386209814,-0.7388530201040999,1.0,1.0
101000001011000001000101001100001101,0.009939705575236527,-0.5706154278456519,1.0,1.0
100100001010000000000101011000001101,0.03718127421479805,-0.7239677883528386,1.0,1.0
100000001001000000000101001110001101,0.02981911672570959,-0.6670974743304074,1.0,1.0
100100001010000000000101001100001101,0.02981911672570959,-0.6670974743304074,1.0,1.0
100000001001000000000100001110000101,0.049698527876182653,-0.8028460464800199,1.0,1.0
100100001010000000000101001110001101,0.019879411150473054,-0.6150959726776,1.0,1.0
101000001011000001000101001100001101,0.009939705575236527,-0.5706154278456519,1.0,1.0
100100001001000000000100001110000101,0.0472099386209814,-0.7388530201040999,1.0,1.0
100100001010000000000101011000001101,0.03718127421479805,-0.7239677883528386,1.0,1.0
100000001001000000000100001100000101,0.059638233451419186,-0.8937847873379051,1.0,1.0
100000001001000000000101001110001101,0.02981911672570959,-0.6670974743304074,1.0,1.0
100100001010000000000101001110001101,0.019879411150473054,-0.6150959726776,1.0,1.0
100100001001000000000101001110001101,0.02832596317258884,-0.62726605832498,1.0,1.0
100000001001000000000100001110000101,0.049698527876182653,-0.8028460464800199,1.0,1.0
100100001000000000000101001110001101,0.02981911672570959,-0.6670974743304074,1.0,1.0
100000001001000000000101001110001101,0.02981911672570959,-0.6670974743304074,1.0,1.0
100000001001000000000100001100000101,0.059638233451419186,-0.8937847873379051,1.0,1.0
100100001010000000000101001110001101,0.019879411150473054,-0.6150959726776,1.0,1.0
100000001001000000000101001110001101,0.02981911672570959,-0.6670974743304074,1.0,1.0
100100001010000000000101001100001101,0.02981911672570959,-0.6670974743304074,1.0,1.0
100000001001000000000101001110001101,0.02981911672570959,-0.6670974743304074,1.0,1.0
101000001001000001000100001110000101,0.029819116725709582,-0.6670974743304072,1.0,1.0
100100001010000000000101001110001101,0.019879411150473054,-0.6150959726776,1.0,1.0
100000001001000000000101001110001101,0.02981911672570959,-0.6670974743304074,1.0,1.0
100100001011000000000101001100001101,0.02832596317258884,-0.62726605832498,1.0,1.0
101000001011000001000101001110001101,0.0,-0.5321342441674862,1.0,1.0
100000001001000000000100001100000101,0.059638233451419186,-0.8937847873379051,1.0,1.0
100100001010000000000101010000001101,0.03283536847171948,-0.6851272849423613,1.0,1.0
100100001010000000000101001110001101,0.019879411150473054,-0.6150959726776,1.0,1.0
100100001001000000000101001110001101,0.02832596317258884,-0.62726605832498,1.0,1.0
100010001001000000000101001100001101,0.043757810178616234,-0.7328520114198975,1.0,1.0
100100001001000000000100001110000101,0.0472099386209814,-0.7388530201040999,1.0,1.0
100100001010000000000101001100001101,0.02981911672570959,-0.6670974743304074,1.0,1.0
100000001001000000000100001100000101,0.059638233451419186,-0.8937847873379051,1.0,1.0
100100001001000000000101001110001101,0.02832596317258884,-0.62726605832498,1.0,1.0
100000001001000000000100001100000101,0.059638233451419186,-0.8937847873379051,1.0,1.0
100000001001000000000100001110000101,0.049698527876182653,-0.8028460464800199,1.0,1.0
100000001001000000000101001110001101,0.02981911672570959,-0.6670974743304074,1.0,1.0
100000001001000000000101001110001101,0.02981911672570959,-0.6670974743304074,1.0,1.0
100100001001000000000100001110000101,0.0472099386209814,-0.7388530201040999,1.0,1.0
100000001001000000000101001110001101,0.02981911672570959,-0.6670974743304074,1.0,1.0
100100001010000000000100011000000101,0.05430902662140502,-0.8599205865286284,1.0,1.0
100100001001000000000101001110001101,0.02832596317258884,-0.62726605832498,1.0,1.0
100000001001000000000100001100000101,0.059638233451419186,-0.8937847873379051,1.0,1.0
100000001001000000000101001110001101,0.02981911672570959,-0.6670974743304074,1.0,1.0
101000001011000001000101001100001101,0.009939705575236527,-0.5706154278456519,1.0,1.0
100010001001000000000101001100001101,0.043757810178616234,-0.7328520114198975,1.0,1.0
100000001001000000000101001110001101,0.02981911672570959,-0.6670974743304074,1.0,1.0
100000001001000000000101001110001101,0.02981911672570959,-0.6670974743304074,1.0,1.0
