Full Design,Target Ratio Objective,Stiffness Objective,Feasibility Score,Stability Score
100010001000000000000100001011000101,0.05430902662140502,-0.8599205865286285,1.0,1.0
100000001100000000000100001011000101,0.049698527876182653,-0.8028460464800199,1.0,1.0
101100001010000001000100001011000101,0.01987941115047306,-0.6150959726776001,1.0,1.0
100010001000000000000100001011000101,0.05430902662140502,-0.8599205865286285,1.0,1.0
101010001000000001000100001011000101,0.03718127421479807,-0.7239677883528388,1.0,1.0
100000001100000000000100001011000101,0.049698527876182653,-0.8028460464800199,1.0,1.0
101010001000000001000100001011000101,0.03718127421479807,-0.7239677883528388,1.0,1.0
101010001000000001000100101001000101,0.043757810178616234,-0.7328520114198976,1.0,1.0
101000001100000001000100011001000101,0.04375781017861623,-0.7328520114198973,1.0,1.0
100000001100000000000100001011000101,0.049698527876182653,-0.8028460464800199,1.0,1.0
100000001100000000000100001001000101,0.059638233451419186,-0.8937847873379051,1.0,1.0
101100001000000001000100001111000101,0.028325963172588828,-0.62726605832498,1.0,1.0
101100001000000001000100001011000101,0.02981911672570959,-0.6670974743304074,1.0,1.0
101100001000000001000100001011000101,0.02981911672570959,-0.6670974743304074,1.0,1.0
101100001000000001000100001011000101,0.02981911672570959,-0.6670974743304074,1.0,1.0
100000001100000000000100001011000101,0.049698527876182653,-0.8028460464800199,1.0,1.0
100000001100000000000100001011000101,0.049698527876182653,-0.8028460464800199,1.0,1.0
101010001000000001000100001011000101,0.03718127421479807,-0.7239677883528388,1.0,1.0
100000001100000000000100001011000101,0.049698527876182653,-0.8028460464800199,1.0,1.0
100000001100000000000100001011000101,0.049698527876182653,-0.8028460464800199,1.0,1.0
101010001000000001000100001011000101,0.03718127421479807,-0.7239677883528388,1.0,1.0
100000001100000000000100001011000101,0.049698527876182653,-0.8028460464800199,1.0,1.0
101100001000000001000100001011000101,0.02981911672570959,-0.6670974743304074,1.0,1.0
100000001100000000000101001001001101,0.03975882230094612,-0.7287036029625051,1.0,1.0
101010001000000001000100001011000101,0.03718127421479807,-0.7239677883528388,1.0,1.0
101100001010000001000101001011001101,0.0,-0.5321342441674862,1.0,1.0
100010001000000000000100001011000101,0.05430902662140502,-0.8599205865286285,1.0,1.0
100000001100000000000100001011000101,0.049698527876182653,-0.8028460464800199,1.0,1.0
100000001100000000000100001011000101,0.049698527876182653,-0.8028460464800199,1.0,1.0
100000001110000000000100001011000101,0.03975882230094612,-0.7287036029625051,1.0,1.0
100000001100000000000101001011001101,0.02981911672570959,-0.6670974743304074,1.0,1.0
101100001010000001000100001011000101,0.01987941115047306,-0.6150959726776001,1.0,1.0
100000001100000000000100001011000101,0.049698527876182653,-0.8028460464800199,1.0,1.0
101100001000000001000100001011000101,0.02981911672570959,-0.6670974743304074,1.0,1.0
100000001100000000000100001011000101,0.049698527876182653,-0.8028460464800199,1.0,1.0
101100001000000001000100001011000101,0.02981911672570959,-0.6670974743304074,1.0,1.0
101100001010000001000100001011000101,0.01987941115047306,-0.6150959726776001,1.0,1.0
100000001100000000000100001011000101,0.049698527876182653,-0.8028460464800199,1.0,1.0
100000001100000000000100001011000101,0.049698527876182653,-0.8028460464800199,1.0,1.0
101100001010000001000100001011000101,0.01987941115047306,-0.6150959726776001,1.0,1.0
101010001000000001000100001011000101,0.03718127421479807,-0.7239677883528388,1.0,1.0
101100001000000001000101001011001101,0.009939705575236527,-0.5706154278456519,1.0,1.0
100000001100000000000100001011000101,0.049698527876182653,-0.8028460464800199,1.0,1.0
100000001110000000000100001011000101,0.03975882230094612,-0.7287036029625051,1.0,1.0
101100001000000001000100001011000101,0.02981911672570959,-0.6670974743304074,1.0,1.0
100000001110000000000100001011000101,0.03975882230094612,-0.7287036029625051,1.0,1.0
101100001010000001000100001011000101,0.01987941115047306,-0.6150959726776001,1.0,1.0
101000001001000001000101001001001101,0.019879411150473054,-0.6150959726775999,1.0,1.0
100000001100000000000100001011000101,0.049698527876182653,-0.8028460464800199,1.0,1.0
100000001100000000000100001011000101,0.049698527876182653,-0.8028460464800199,1.0,1.0
101100001010000001000100001011000101,0.01987941115047306,-0.6150959726776001,1.0,1.0
100000001100000000000100001001000101,0.059638233451419186,-0.8937847873379051,1.0,1.0
101010001000000001000100001011000101,0.03718127421479807,-0.7239677883528388,1.0,1.0
101000001001000001000101001011001101,0.009939705575236527,-0.5706154278456519,1.0,1.0
100000001100000000000100001011000101,0.049698527876182653,-0.8028460464800199,1.0,1.0
101000001001000001000101001011001101,0.009939705575236527,-0.5706154278456519,1.0,1.0
100000001100000000000100001011000101,0.049698527876182653,-0.8028460464800199,1.0,1.0
101000001001000001000101001011001101,0.009939705575236527,-0.5706154278456519,1.0,1.0
101100001000000001000100001011000101,0.02981911672570959,-0.6670974743304074,1.0,1.0
100010001001000000000101001011001101,0.03556598075249552,-0.6807454831661484,1.0,1.0
101010001000000001000100001011000101,0.03718127421479807,-0.7239677883528388,1.0,1.0
100000001110000000000100001011000101,0.03975882230094612,-0.7287036029625051,1.0,1.0
101100001010000001000100001011000101,0.01987941115047306,-0.6150959726776001,1.0,1.0
100000001100000000000100001011000101,0.049698527876182653,-0.8028460464800199,1.0,1.0
101100001010000001000100001011000101,0.01987941115047306,-0.6150959726776001,1.0,1.0
100000001100000000000100001011000101,0.049698527876182653,-0.8028460464800199,1.0,1.0
101010001001000001000100001011000101,0.03556598075249552,-0.6807454831661484,1.0,1.0
101100001000000001000100001011000101,0.02981911672570959,-0.6670974743304074,1.0,1.0
100000001100000000000100001011000101,0.049698527876182653,-0.8028460464800199,1.0,1.0
101010001000000001000100001111000101,0.03556598075249552,-0.6807454831661484,1.0,1.0
101100001010000001000100001011000101,0.01987941115047306,-0.6150959726776001,1.0,1.0
101100001010000001000100001011000101,0.01987941115047306,-0.6150959726776001,1.0,1.0
101000001001000001000101001011001101,0.009939705575236527,-0.5706154278456519,1.0,1.0
101100001010000001000100001001000101,0.02981911672570959,-0.6670974743304074,1.0,1.0
100010001000000000000100001011000101,0.05430902662140502,-0.8599205865286285,1.0,1.0
100000001100000000000100001001000101,0.059638233451419186,-0.8937847873379051,1.0,1.0
100000001100000000000100001001000101,0.059638233451419186,-0.8937847873379051,1.0,1.0
100000001100000000000100001011000101,0.049698527876182653,-0.8028460464800199,1.0,1.0
100000001100000000000100101011000101,0.0472099386209814,-0.7388530201040999,1.0,1.0
100000001100000000000100001011000101,0.049698527876182653,-0.8028460464800199,1.0,1.0
101100001000000001000101001011001101,0.009939705575236527,-0.5706154278456519,1.0,1.0
101010001000000001000100001011000101,0.03718127421479807,-0.7239677883528388,1.0,1.0
101100001000000001000100001011000101,0.02981911672570959,-0.6670974743304074,1.0,1.0
100010001001000000000101001011001101,0.03556598075249552,-0.6807454831661484,1.0,1.0
101000001001000001000101001011001101,0.009939705575236527,-0.5706154278456519,1.0,1.0
100000001100000000000100001001000101,0.059638233451419186,-0.8937847873379051,1.0,1.0
100000001100000000000100001001000101,0.059638233451419186,-0.8937847873379051,1.0,1.0
100000001110000000000100001011000101,0.03975882230094612,-0.7287036029625051,1.0,1.0
101100001001000001000101001011001101,0.009441987724196273,-0.5449619390846638,1.0,1.0
100000001100000000000100001001000101,0.059638233451419186,-0.8937847873379051,1.0,1.0
101010001000000001000101101011001101,0.019182321900254106,-0.5959939265397625,1.0,1.0
100000001110000000000100001011000101,0.03975882230094612,-0.7287036029625051,1.0,1.0
101100001010000001000100001011000101,0.01987941115047306,-0.6150959726776001,1.0,1.0
100000001100000000000100001001000101,0.059638233451419186,-0.8937847873379051,1.0,1.0
101000001001000001000101001011001101,0.009939705575236527,-0.5706154278456519,1.0,1.0
101100001001000001000101001011001101,0.009441987724196273,-0.5449619390846638,1.0,1.0
101000001001000001000101001011001101,0.009939705575236527,-0.5706154278456519,1.0,1.0
100000001001000000000101001011001101,0.02981911672570959,-0.6670974743304074,1.0,1.0
100000001110000000000100001011000101,0.03975882230094612,-0.7287036029625051,1.0,1.0
100000001100000000000100001011000101,0.049698527876182653,-0.8028460464800199,1.0,1.0
