Full Design,Target Ratio Objective,Stiffness Objective,Feasibility Score,Stability Score
101100001010000001000100101000000101,0.02981911672570959,-0.6670974743304074,1.0,1.0
100100001000000000000100101010010101,0.0472099386209814,-0.7388530201040999,1.0,1.0
101100001010000011000100001010010101,0.018883975448392553,-0.5832246426841105,1.0,1.0
100010001000000000000100001010010101,0.05430902662140502,-0.8599205865286285,1.0,1.0
100100001010000000000100001010010101,0.03975882230094612,-0.7287036029625051,1.0,1.0
101100001011000001000100101000000101,0.028325963172588835,-0.62726605832498,1.0,1.0
101100001010000001000100101000000101,0.02981911672570959,-0.6670974743304074,1.0,1.0
101100001010000001000100001010010101,0.01987941115047306,-0.6150959726776001,1.0,1.0
101100001010000001000100101000000101,0.02981911672570959,-0.6670974743304074,1.0,1.0
101100001000000001000100101000000101,0.03975882230094612,-0.7287036029625051,1.0,1.0
101100001010000001000100001100000101,0.02981911672570959,-0.6670974743304074,1.0,1.0
100100001000000000000100101010010101,0.0472099386209814,-0.7388530201040999,1.0,1.0
101100001000000001000100101000000101,0.03975882230094612,-0.7287036029625051,1.0,1.0
101100001010000001000101101000001101,0.009939705575236527,-0.5706154278456519,1.0,1.0
101100001010000001000100101000000101,0.02981911672570959,-0.6670974743304074,1.0,1.0
101100001010000001000100101000000101,0.02981911672570959,-0.6670974743304074,1.0,1.0
100100001000000000000100101000000101,0.059638233451419186,-0.8937847873379051,1.0,1.0
100100001010000000000100101000000101,0.049698527876182653,-0.8028460464800199,1.0,1.0
101100001010000001000100101000000101,0.02981911672570959,-0.6670974743304074,1.0,1.0
100100001000000000000100101010010101,0.0472099386209814,-0.7388530201040999,1.0,1.0
100100001000000000000100001000010101,0.059638233451419186,-0.8937847873379051,1.0,1.0
101100001010000001000100101000000101,0.02981911672570959,-0.6670974743304074,1.0,1.0
101100001010000001000100101010000101,0.019879411150473054,-0.6150959726776,1.0,1.0
101100001010000001000100101000000101,0.02981911672570959,-0.6670974743304074,1.0,1.0
101100001010000011000100001010010101,0.018883975448392553,-0.5832246426841105,1.0,1.0
100100001000000000000101101010001101,0.02981911672570959,-0.6670974743304074,1.0,1.0
100100001010000000000101101000001101,0.02981911672570959,-0.6670974743304074,1.0,1.0
101100001010000001000100101010010101,0.018883975448392553,-0.5832246426841105,1.0,1.0
101100001000000001000100001010010101,0.02981911672570959,-0.6670974743304074,1.0,1.0
100100001000000000000101101000001101,0.03975882230094612,-0.7287036029625051,1.0,1.0
101100001010000001000100001010010101,0.01987941115047306,-0.6150959726776001,1.0,1.0
101100001010000001000101101000001101,0.009939705575236527,-0.5706154278456519,1.0,1.0
100100001010000000000100001010010101,0.03975882230094612,-0.7287036029625051,1.0,1.0
101100001000000001000100001010010101,0.02981911672570959,-0.6670974743304074,1.0,1.0
100110001000000000000101101000001101,0.04375781017861623,-0.7328520114198973,1.0,1.0
101100001010000001000101101000001101,0.009939705575236527,-0.5706154278456519,1.0,1.0
100100001010000000000100101000000101,0.049698527876182653,-0.8028460464800199,1.0,1.0
101100001010000001000100001000010101,0.02981911672570959,-0.6670974743304074,1.0,1.0
100100001000000000000100001010010101,0.049698527876182653,-0.8028460464800199,1.0,1.0
100100001010000000000100001010010101,0.03975882230094612,-0.7287036029625051,1.0,1.0
100100001010000000000100101000000101,0.049698527876182653,-0.8028460464800199,1.0,1.0
100100001000000000000100101010010101,0.0472099386209814,-0.7388530201040999,1.0,1.0
101100001010000001000100101000000101,0.02981911672570959,-0.6670974743304074,1.0,1.0
101100001010000001000100101010010101,0.018883975448392553,-0.5832246426841105,1.0,1.0
101100001010000001000100101000000101,0.02981911672570959,-0.6670974743304074,1.0,1.0
101010001000000001000100001010010101,0.03718127421479807,-0.7239677883528388,1.0,1.0
100100001000000000000100101000000101,0.059638233451419186,-0.8937847873379051,1.0,1.0
101100001010000001000100001010010101,0.01987941115047306,-0.6150959726776001,1.0,1.0
101010001001000001000100001010010101,0.03556598075249552,-0.6807454831661484,1.0,1.0
100010001000000000000100101010000101,0.05430902662140502,-0.8599205865286285,1.0,1.0
100100001000000000000100101000000101,0.059638233451419186,-0.8937847873379051,1.0,1.0
101100001010000001000101101000011101,0.009441987724196289,-0.5449619390846638,1.0,1.0
101100001010000001000101101000001101,0.009939705575236527,-0.5706154278456519,1.0,1.0
100100001010000000000101101000001101,0.02981911672570959,-0.6670974743304074,1.0,1.0
101100001010000001000100101000000101,0.02981911672570959,-0.6670974743304074,1.0,1.0
100100001010000000000100101000000101,0.049698527876182653,-0.8028460464800199,1.0,1.0
101100001010000001000100101010010101,0.018883975448392553,-0.5832246426841105,1.0,1.0
101100001010000001000100101000000101,0.02981911672570959,-0.6670974743304074,1.0,1.0
101100001010000001000100101000000101,0.02981911672570959,-0.6670974743304074,1.0,1.0
101100001011000001000101101000001101,0.00944198772419628,-0.5449619390846637,1.0,1.0
101100001000000001000101101000001101,0.019879411150473054,-0.6150959726776,1.0,1.0
101100001010000001000100101000000101,0.02981911672570959,-0.6670974743304074,1.0,1.0
101100001010000001000101101000001101,0.009939705575236527,-0.5706154278456519,1.0,1.0
101100001010000001000101101000001101,0.009939705575236527,-0.5706154278456519,1.0,1.0
101100001010000001000100001010010101,0.01987941115047306,-0.6150959726776001,1.0,1.0
101100001000000001000100101000000101,0.03975882230094612,-0.7287036029625051,1.0,1.0
101100001010000001000100001010010101,0.01987941115047306,-0.6150959726776001,1.0,1.0
101100001010000001000101101000001101,0.009939705575236527,-0.5706154278456519,1.0,1.0
101100001010000001000100101000000101,0.02981911672570959,-0.6670974743304074,1.0,1.0
101100001010000001000101101000001101,0.009939705575236527,-0.5706154278456519,1.0,1.0
101100001010000001000100101000000101,0.02981911672570959,-0.6670974743304074,1.0,1.0
101100001000000001000100001010010101,0.02981911672570959,-0.6670974743304074,1.0,1.0
100100001000000000000100101000000101,0.059638233451419186,-0.8937847873379051,1.0,1.0
101100001000000001000100101010000101,0.02981911672570959,-0.6670974743304074,1.0,1.0
101100001010000001000100001010010101,0.01987941115047306,-0.6150959726776001,1.0,1.0
101100001010000001000100101000000101,0.02981911672570959,-0.6670974743304074,1.0,1.0
101100001010000001000100001010010101,0.01987941115047306,-0.6150959726776001,1.0,1.0
101100001010000001000100101000000101,0.02981911672570959,-0.6670974743304074,1.0,1.0
101100001010000001000101101000001101,0.009939705575236527,-0.5706154278456519,1.0,1.0
101100001010000001000100101000000101,0.02981911672570959,-0.6670974743304074,1.0,1.0
100100001000000000000100001010010101,0.049698527876182653,-0.8028460464800199,1.0,1.0
101100001010000001000100001010010101,0.01987941115047306,-0.6150959726776001,1.0,1.0
101100001010000001000100101000000101,0.02981911672570959,-0.6670974743304074,1.0,1.0
100100001000000000000100101000000101,0.059638233451419186,-0.8937847873379051,1.0,1.0
101100001010000001000101101000001101,0.009939705575236527,-0.5706154278456519,1.0,1.0
101100001010000001000100101000000101,0.02981911672570959,-0.6670974743304074,1.0,1.0
101100001010000001000101101010001101,0.0,-0.5321342441674862,1.0,1.0
101100001010000001000100101000000101,0.02981911672570959,-0.6670974743304074,1.0,1.0
100100001000000000000100101010010101,0.0472099386209814,-0.7388530201040999,1.0,1.0
100100001000000000000100101010010101,0.0472099386209814,-0.7388530201040999,1.0,1.0
101100001000000001000100101000000101,0.03975882230094612,-0.7287036029625051,1.0,1.0
101100001010000001000100101000000101,0.02981911672570959,-0.6670974743304074,1.0,1.0
100100001010000000000100001010010101,0.03975882230094612,-0.7287036029625051,1.0,1.0
101100001010000001000100001110010101,0.018883975448392546,-0.5832246426841103,1.0,1.0
101100001011000001000100101000000101,0.028325963172588835,-0.62726605832498,1.0,1.0
100100001000000000000100101000000101,0.059638233451419186,-0.8937847873379051,1.0,1.0
101100001000000001000100101000000101,0.03975882230094612,-0.7287036029625051,1.0,1.0
101100001010000001000100101000000101,0.02981911672570959,-0.6670974743304074,1.0,1.0
100100001000000000000100001010010101,0.049698527876182653,-0.8028460464800199,1.0,1.0
101100001010000001000100101000000101,0.02981911672570959,-0.6670974743304074,1.0,1.0
