Full Design,Penalized Target Ratio Objective,Penalized Stiffness Objective,Feasibility Score,Stability Score
101000001010000011000101001110001101,0.0,-0.5321342441674862,1.0,1.0
101000001000000011000101101010001101,0.013420213035556442,-0.5523349172814556,1.0,1.0
101000001000000101000100101010010101,0.04915546417120757,-0.6727310451327506,1.0,1.0
101000001000000101000100101010010101,0.04915546417120757,-0.6727310451327506,1.0,1.0
101000001000000101000100101010010101,0.04915546417120757,-0.6727310451327506,1.0,1.0
101000001000000101000100101010010101,0.04915546417120757,-0.6727310451327506,1.0,1.0
101000001000000011000101001110001101,0.01646864342103375,-0.5706154278456519,1.0,1.0
100000001000000100000100101010010101,0.06428683200212387,-0.7531185803094718,1.0,1.0
101000001000000101000101101010011101,0.02778474446029736,-0.5920226362842448,1.0,1.0
101000001000000101000101101010011101,0.02778474446029736,-0.5920226362842448,1.0,1.0
101000001000000101000100101010000101,0.058541675889758164,-0.718808561638583,1.0,1.0
101000001000000011000101001110001101,0.01646864342103375,-0.5706154278456519,1.0,1.0
101000001000000101000100101010010101,0.04915546417120757,-0.6727310451327506,1.0,1.0
101000001000000101000101101010001101,0.02896790878635085,-0.6207590411129784,1.0,1.0
101000001000000101000100101010010101,0.04915546417120757,-0.6727310451327506,1.0,1.0
101000001000000101000101101010001101,0.02896790878635085,-0.6207590411129784,1.0,1.0
101000001000000101000101101010001101,0.02896790878635085,-0.6207590411129784,1.0,1.0
101000001000000101000101101010001101,0.02896790878635085,-0.6207590411129784,1.0,1.0
101000001000000101000100101010010101,0.04915546417120757,-0.6727310451327506,1.0,1.0
101000001010000011000101001110001101,0.0,-0.5321342441674862,1.0,1.0
101000001000000101000100101010000101,0.058541675889758164,-0.718808561638583,1.0,1.0
101000001000000101000101101010001101,0.02896790878635085,-0.6207590411129784,1.0,1.0
101000001000000101000100101010010101,0.04915546417120757,-0.6727310451327506,1.0,1.0
101000001000000101000100101010000101,0.058541675889758164,-0.718808561638583,1.0,1.0
101000001000000101000100101010010101,0.04915546417120757,-0.6727310451327506,1.0,1.0
101000001000000101000100101010010101,0.04915546417120757,-0.6727310451327506,1.0,1.0
101000001000000101000101101010001101,0.02896790878635085,-0.6207590411129784,1.0,1.0
101000001000000101000100101010010101,0.04915546417120757,-0.6727310451327506,1.0,1.0
101000001000000101000100101010000101,0.058541675889758164,-0.718808561638583,1.0,1.0
101000001000000011000101001110001101,0.01646864342103375,-0.5706154278456519,1.0,1.0
101000001010000011000101001110001101,0.0,-0.5321342441674862,1.0,1.0
101000001000000011000101001110001101,0.01646864342103375,-0.5706154278456519,1.0,1.0
101000001000000101000101101010011101,0.02778474446029736,-0.5920226362842448,1.0,1.0
100000001000000100000100101010010101,0.06428683200212387,-0.7531185803094718,1.0,1.0
101000001010000011000101001110001101,0.0,-0.5321342441674862,1.0,1.0
101000001000000101000100101010010101,0.04915546417120757,-0.6727310451327506,1.0,1.0
101000001000000101000101101010011101,0.02778474446029736,-0.5920226362842448,1.0,1.0
101000001000000111000101101010001101,0.022323337080113182,-0.5830308146850386,1.0,1.0
101000001000000111000100101010010101,0.042197923345997465,-0.6288265802099167,1.0,1.0
101000001000000101000101101010011101,0.02778474446029736,-0.5920226362842448,1.0,1.0
101000001000000101000100101010010101,0.04915546417120757,-0.6727310451327506,1.0,1.0
101000001000000101000100101010010101,0.04915546417120757,-0.6727310451327506,1.0,1.0
101000001000000101000100101010010101,0.04915546417120757,-0.6727310451327506,1.0,1.0
101000001000000101000101101010001101,0.02896790878635085,-0.6207590411129784,1.0,1.0
101000001000000101000100101010000101,0.058541675889758164,-0.718808561638583,1.0,1.0
101000001000000101000101101010001101,0.02896790878635085,-0.6207590411129784,1.0,1.0
101000001000000101000101101010011101,0.02778474446029736,-0.5920226362842448,1.0,1.0
101000001010000011000101001110001101,0.0,-0.5321342441674862,1.0,1.0
100000001000000100000100101010010101,0.06428683200212387,-0.7531185803094718,1.0,1.0
101000001000000101000100101010000101,0.058541675889758164,-0.718808561638583,1.0,1.0
101000001000000101000101101010011101,0.02778474446029736,-0.5920226362842448,1.0,1.0
101000001010000011000101001110001101,0.0,-0.5321342441674862,1.0,1.0
101000001000000101000101101010001101,0.02896790878635085,-0.6207590411129784,1.0,1.0
100000001000000100000100101010010101,0.06428683200212387,-0.7531185803094718,1.0,1.0
101000001000000101000101101010001101,0.02896790878635085,-0.6207590411129784,1.0,1.0
101100001000000011000101001110001101,0.01060636497461925,-0.535865851909617,1.0,1.0
101000001000000101000100101010010101,0.04915546417120757,-0.6727310451327506,1.0,1.0
101000001000000011000101001110001101,0.01646864342103375,-0.5706154278456519,1.0,1.0
101000001000000101000100101010010101,0.04915546417120757,-0.6727310451327506,1.0,1.0
101000001000000111000101001110001101,0.02427542377913409,-0.5915075730073454,1.0,1.0
101000001010000011000101001110001101,0.0,-0.5321342441674862,1.0,1.0
101000001000000101000101101010001101,0.02896790878635085,-0.6207590411129784,1.0,1.0
101000001000000011000101001110001101,0.01646864342103375,-0.5706154278456519,1.0,1.0
101000001000000111000101001110001101,0.02427542377913409,-0.5915075730073454,1.0,1.0
101000001000000101000100101010010101,0.04915546417120757,-0.6727310451327506,1.0,1.0
101000001000000101000101101010011101,0.02778474446029736,-0.5920226362842448,1.0,1.0
101000001000000101000100101010000101,0.058541675889758164,-0.718808561638583,1.0,1.0
101000001000000101000101101010001101,0.02896790878635085,-0.6207590411129784,1.0,1.0
101000001000000111000101101010001101,0.022323337080113182,-0.5830308146850386,1.0,1.0
101000001000000011000101001010011101,0.013420213035556428,-0.5523349172814555,1.0,1.0
101000001000000101000101101010001101,0.02896790878635085,-0.6207590411129784,1.0,1.0
101000001000000011000101001110001101,0.01646864342103375,-0.5706154278456519,1.0,1.0
101000001000000101000100101010010101,0.04915546417120757,-0.6727310451327506,1.0,1.0
101000001000000101000100101010010101,0.04915546417120757,-0.6727310451327506,1.0,1.0
101000001000000101000100101010010101,0.04915546417120757,-0.6727310451327506,1.0,1.0
101000001000000101000100101010000101,0.058541675889758164,-0.718808561638583,1.0,1.0
101000001000000101000101101010001101,0.02896790878635085,-0.6207590411129784,1.0,1.0
101000001000000011000101001110001101,0.01646864342103375,-0.5706154278456519,1.0,1.0
101000001000000101000100101010000101,0.058541675889758164,-0.718808561638583,1.0,1.0
101000001000000011000101001110001101,0.01646864342103375,-0.5706154278456519,1.0,1.0
101000001000000101000100001010010101,0.058500822715255016,-0.7016466066105524,1.0,1.0
101000001000000101000100101010000101,0.058541675889758164,-0.718808561638583,1.0,1.0
101000001000000101000101101010001101,0.02896790878635085,-0.6207590411129784,1.0,1.0
101000001000000101000101101010011101,0.02778474446029736,-0.5920226362842448,1.0,1.0
101000001000000101000101001010011101,0.02869171863190114,-0.6127990667417597,1.0,1.0
101000001000000101000100101010000101,0.058541675889758164,-0.718808561638583,1.0,1.0
101000001000000101000100101010000101,0.058541675889758164,-0.718808561638583,1.0,1.0
101000001000000101000101101010011101,0.02778474446029736,-0.5920226362842448,1.0,1.0
101000001000000011000101001010011101,0.013420213035556428,-0.5523349172814555,1.0,1.0
101000001000000011000101001110001101,0.01646864342103375,-0.5706154278456519,1.0,1.0
101000001000000101000100101010010101,0.04915546417120757,-0.6727310451327506,1.0,1.0
101000001000000011000101001110001101,0.01646864342103375,-0.5706154278456519,1.0,1.0
101000001000000101000101101010001101,0.02896790878635085,-0.6207590411129784,1.0,1.0
101000001010000011000101001110001101,0.0,-0.5321342441674862,1.0,1.0
101000001000000101000100101010000101,0.058541675889758164,-0.718808561638583,1.0,1.0
100000001000000100000100101010010101,0.06428683200212387,-0.7531185803094718,1.0,1.0
101000001000000101000100101010000101,0.058541675889758164,-0.718808561638583,1.0,1.0
101000001000000101000100001010010101,0.058500822715255016,-0.7016466066105524,1.0,1.0
101000001000000101000100101010010101,0.04915546417120757,-0.6727310451327506,1.0,1.0
101000001000000101000101101010011101,0.02778474446029736,-0.5920226362842448,1.0,1.0
