Full Design,Penalized Target Ratio Objective,Penalized Stiffness Objective,Feasibility Score,Stability Score
101100001000000001000101101001001101,0.019134240695146427,-0.5755963881095092,1.0,1.0
101010001000000001000100101010010101,0.04915546417120757,-0.6727310451327506,1.0,1.0
101100001000000001000101101001001101,0.019134240695146427,-0.5755963881095092,1.0,1.0
100110001000000000000100101010010101,0.056610515038364694,-0.6942650518411632,1.0,1.0
100000001110000000000101011000001101,0.05854167588975816,-0.7188085616385832,1.0,1.0
101010001000000001000100101010000101,0.058500822715255016,-0.7016466066105526,1.0,1.0
101100001000000001000101101001001101,0.019134240695146427,-0.5755963881095092,1.0,1.0
101100001000000001000101101001001101,0.019134240695146427,-0.5755963881095092,1.0,1.0
101100001010000001000101001101001101,0.010606364974619264,-0.5358658519096171,1.0,1.0
101100001000000001000101101001001101,0.019134240695146427,-0.5755963881095092,1.0,1.0
101110001000000001000100101010010101,0.042197923345997465,-0.6288265802099167,1.0,1.0
101010001000000001000100101010010101,0.04915546417120757,-0.6727310451327506,1.0,1.0
101100001000000001000101101001001101,0.019134240695146427,-0.5755963881095092,1.0,1.0
101110001000000001000100101010010101,0.042197923345997465,-0.6288265802099167,1.0,1.0
101100001000000001000101101001001101,0.019134240695146427,-0.5755963881095092,1.0,1.0
101000001110000001000101011000001101,0.028967908786350843,-0.6207590411129783,1.0,1.0
101100001010000001000101001011001101,0.0,-0.5321342441674862,1.0,1.0
101100001000000001000101101001001101,0.019134240695146427,-0.5755963881095092,1.0,1.0
101000001110000001000101011000001101,0.028967908786350843,-0.6207590411129783,1.0,1.0
101100001000000001000101101001001101,0.019134240695146427,-0.5755963881095092,1.0,1.0
100010001000000000000100101010010101,0.06428683200212386,-0.7531185803094718,1.0,1.0
101100001010000001000101001011001101,0.0,-0.5321342441674862,1.0,1.0
101100001000000001000101001011001101,0.01646864342103375,-0.5706154278456519,1.0,1.0
101100001000000001000101101001001101,0.019134240695146427,-0.5755963881095092,1.0,1.0
101100001000000001000101101001001101,0.019134240695146427,-0.5755963881095092,1.0,1.0
101100001000000001000101101001001101,0.019134240695146427,-0.5755963881095092,1.0,1.0
101000001110000001000101011001001101,0.022323337080113168,-0.5830308146850385,1.0,1.0
101010001000000001000100101010010101,0.04915546417120757,-0.6727310451327506,1.0,1.0
100010001000000000000100101010010101,0.06428683200212386,-0.7531185803094718,1.0,1.0
101100001000000001000101101010001101,0.01342021303555645,-0.5523349172814558,1.0,1.0
101110001000000001000100101010010101,0.042197923345997465,-0.6288265802099167,1.0,1.0
101000001110000001000101011000001101,0.028967908786350843,-0.6207590411129783,1.0,1.0
100000001110000000000101011000001101,0.05854167588975816,-0.7188085616385832,1.0,1.0
101100001000000001000101101001001101,0.019134240695146427,-0.5755963881095092,1.0,1.0
101110001000000001000100101010010101,0.042197923345997465,-0.6288265802099167,1.0,1.0
100010001000000000000100101010010101,0.06428683200212386,-0.7531185803094718,1.0,1.0
101100001000000001000101001011001101,0.01646864342103375,-0.5706154278456519,1.0,1.0
101100001010000001000101001011001101,0.0,-0.5321342441674862,1.0,1.0
100010001000000000000100101010010101,0.06428683200212386,-0.7531185803094718,1.0,1.0
100010001000000000000100101010010101,0.06428683200212386,-0.7531185803094718,1.0,1.0
101010001000000001000100101010010101,0.04915546417120757,-0.6727310451327506,1.0,1.0
100010001000000000000100101010010101,0.06428683200212386,-0.7531185803094718,1.0,1.0
101100001000000001000101101001001101,0.019134240695146427,-0.5755963881095092,1.0,1.0
101010001000000001000100101010000101,0.058500822715255016,-0.7016466066105526,1.0,1.0
101010001000000001000100101010000101,0.058500822715255016,-0.7016466066105526,1.0,1.0
100110001000000000000100101010010101,0.056610515038364694,-0.6942650518411632,1.0,1.0
101100001000000001000101101001001101,0.019134240695146427,-0.5755963881095092,1.0,1.0
101110001000000001000101101000001101,0.028691718631901134,-0.5959495352618653,1.0,1.0
101100001000000001000101101001001101,0.019134240695146427,-0.5755963881095092,1.0,1.0
101110001000000001000100101010010101,0.042197923345997465,-0.6288265802099167,1.0,1.0
100010001000000000000100101010010101,0.06428683200212386,-0.7531185803094718,1.0,1.0
100000001111000000000101011000001101,0.04915546417120757,-0.6727310451327506,1.0,1.0
101110001000000001000100101010010101,0.042197923345997465,-0.6288265802099167,1.0,1.0
101100001000000001000101101001001101,0.019134240695146427,-0.5755963881095092,1.0,1.0
101100001010000001000101001011001101,0.0,-0.5321342441674862,1.0,1.0
101000001110000001000101011001001101,0.022323337080113168,-0.5830308146850385,1.0,1.0
101010001000000001000100101010010101,0.04915546417120757,-0.6727310451327506,1.0,1.0
101110001000000001000100101010010101,0.042197923345997465,-0.6288265802099167,1.0,1.0
101100001010000001000101001011001101,0.0,-0.5321342441674862,1.0,1.0
100010001000000000000100101010010101,0.06428683200212386,-0.7531185803094718,1.0,1.0
101100001000000001000101101001001101,0.019134240695146427,-0.5755963881095092,1.0,1.0
101000001110000001000101011000001101,0.028967908786350843,-0.6207590411129783,1.0,1.0
100000001110000000000101011000001101,0.05854167588975816,-0.7188085616385832,1.0,1.0
101100001000000001000101101001001101,0.019134240695146427,-0.5755963881095092,1.0,1.0
101100001010000001000101001011001101,0.0,-0.5321342441674862,1.0,1.0
101110001000000001000100101010010101,0.042197923345997465,-0.6288265802099167,1.0,1.0
101100001000000001000101001011001101,0.01646864342103375,-0.5706154278456519,1.0,1.0
100010001000000000000100101010010101,0.06428683200212386,-0.7531185803094718,1.0,1.0
101100001000000001000101001011001101,0.01646864342103375,-0.5706154278456519,1.0,1.0
101100001000000001000101001010011101,0.013420213035556442,-0.5523349172814556,1.0,1.0
101110001000000001000100101010010101,0.042197923345997465,-0.6288265802099167,1.0,1.0
101100001000000001000101101001001101,0.019134240695146427,-0.5755963881095092,1.0,1.0
101000001110000001000101011000001101,0.028967908786350843,-0.6207590411129783,1.0,1.0
101010001000000001000100101010010101,0.04915546417120757,-0.6727310451327506,1.0,1.0
100010001000000000000100101010010101,0.06428683200212386,-0.7531185803094718,1.0,1.0
101010001000000001000100101010010101,0.04915546417120757,-0.6727310451327506,1.0,1.0
101000001110000001000101011001001101,0.022323337080113168,-0.5830308146850385,1.0,1.0
101010001000000001000100101010010101,0.04915546417120757,-0.6727310451327506,1.0,1.0
101000001110000001000101011000001101,0.028967908786350843,-0.6207590411129783,1.0,1.0
100010001000000000000100101010010101,0.06428683200212386,-0.7531185803094718,1.0,1.0
101010001000000001000100101010010101,0.04915546417120757,-0.6727310451327506,1.0,1.0
100010001000000000000100101010010101,0.06428683200212386,-0.7531185803094718,1.0,1.0
101100001010000001000101001011001101,0.0,-0.5321342441674862,1.0,1.0
101100001010000001000101001011001101,0.0,-0.5321342441674862,1.0,1.0
101000001110000001000101011001001101,0.022323337080113168,-0.5830308146850385,1.0,1.0
101100001000000001000101101001001101,0.019134240695146427,-0.5755963881095092,1.0,1.0
101100001000000001000101101001001101,0.019134240695146427,-0.5755963881095092,1.0,1.0
101100001000000001000100101010000101,0.04759900120246822,-0.6427249660257898,1.0,1.0
100110001000000000000100101010010101,0.056610515038364694,-0.6942650518411632,1.0,1.0
101100001010000001000101001011001101,0.0,-0.5321342441674862,1.0,1.0
100010001000000000000100101010010101,0.06428683200212386,-0.7531185803094718,1.0,1.0
101000001110000001000101011001001101,0.022323337080113168,-0.5830308146850385,1.0,1.0
101000001110000001000101011001001101,0.022323337080113168,-0.5830308146850385,1.0,1.0
101100001000000001000101101001001101,0.019134240695146427,-0.5755963881095092,1.0,1.0
101110001000000001000101101000001101,0.028691718631901134,-0.5959495352618653,1.0,1.0
101000001110000001000101011000001101,0.028967908786350843,-0.6207590411129783,1.0,1.0
101000001110000001000101011000001101,0.028967908786350843,-0.6207590411129783,1.0,1.0
100010001000000000000100101010010101,0.06428683200212386,-0.7531185803094718,1.0,1.0
100010001000000000000100101010010101,0.06428683200212386,-0.7531185803094718,1.0,1.0
100000001110000000000101011000001101,0.05854167588975816,-0.7188085616385832,1.0,1.0
