Full Design,Penalized Target Ratio Objective,Penalized Stiffness Objective,Feasibility Score,Stability Score
100100001010000000000100101000000101,0.049698527876182653,-0.8028460464800199,1.0,1.0
100100001010000000000100101000000101,0.049698527876182653,-0.8028460464800199,1.0,1.0
101100001010000001000100101000000101,0.02981911672570959,-0.6670974743304074,1.0,1.0
101100001010000001000101011000001101,0.020053521808191102,-0.6251344947560631,1.0,1.0
101100001000000011000101101000001101,0.018883975448392553,-0.5832246426841103,1.0,1.0
100100001010000000000101101000001101,0.02981911672570959,-0.6670974743304074,1.0,1.0
101100001010000001000101101000001101,0.009939705575236527,-0.5706154278456519,1.0,1.0
101100001010000001000101011000001101,0.020053521808191102,-0.6251344947560631,1.0,1.0
100100001010000000000100101000000101,0.049698527876182653,-0.8028460464800199,1.0,1.0
101100001000000001000101101000001101,0.019879411150473054,-0.6150959726776,1.0,1.0
100100001010000000000100101001000101,0.0472099386209814,-0.7388530201040999,1.0,1.0
100100001010000000000101011000001101,0.03718127421479805,-0.7239677883528386,1.0,1.0
100100001010000000000100101000000101,0.049698527876182653,-0.8028460464800199,1.0,1.0
100100001000000000000101101000001101,0.03975882230094612,-0.7287036029625051,1.0,1.0
100100001010000000000101101000001101,0.02981911672570959,-0.6670974743304074,1.0,1.0
101100001000000001000100101000000101,0.03975882230094612,-0.7287036029625051,1.0,1.0
100100001010000000000101011000001101,0.03718127421479805,-0.7239677883528386,1.0,1.0
100100001010000000000101011000001101,0.03718127421479805,-0.7239677883528386,1.0,1.0
100100001000000000000100101000000101,0.059638233451419186,-0.8937847873379051,1.0,1.0
100100001010000000000100101000000101,0.049698527876182653,-0.8028460464800199,1.0,1.0
100100001010000000000100101000000101,0.049698527876182653,-0.8028460464800199,1.0,1.0
100100001010000000000101101000001101,0.02981911672570959,-0.6670974743304074,1.0,1.0
100100001010000000000100101000000101,0.049698527876182653,-0.8028460464800199,1.0,1.0
101100001000000001000100101000000101,0.03975882230094612,-0.7287036029625051,1.0,1.0
101100001000000001000100101000000101,0.03975882230094612,-0.7287036029625051,1.0,1.0
101100001010000001000101100000001101,0.0,-0.523387879643664,1.0,1.0
100100001000000000000101101000001101,0.03975882230094612,-0.7287036029625051,1.0,1.0
101100001010000001000101011000001101,0.020053521808191102,-0.6251344947560631,1.0,1.0
100000001000000100000100101000000101,0.09719102074521484,-0.914710810471064,1.0,0.9
100100001010000000000100101000000101,0.049698527876182653,-0.8028460464800199,1.0,1.0
100100001000000000000100101010000101,0.049698527876182653,-0.8028460464800199,1.0,1.0
100100001010000000000100101000000101,0.049698527876182653,-0.8028460464800199,1.0,1.0
100100001000000000000101101000001101,0.03975882230094612,-0.7287036029625051,1.0,1.0
101100001010000001000101101000001101,0.009939705575236527,-0.5706154278456519,1.0,1.0
101100001010000001000101111000001101,0.019182321900254106,-0.5959939265397625,1.0,1.0
100100001000000000000101101000001101,0.03975882230094612,-0.7287036029625051,1.0,1.0
100100001010000000000101101010001101,0.019879411150473054,-0.6150959726776,1.0,1.0
100100001010000000000101101000001101,0.02981911672570959,-0.6670974743304074,1.0,1.0
100100001010000000000100101000000101,0.049698527876182653,-0.8028460464800199,1.0,1.0
100100001010000000000101011000001101,0.03718127421479805,-0.7239677883528386,1.0,1.0
100100001000000000000101101000001101,0.03975882230094612,-0.7287036029625051,1.0,1.0
100100001000000000000100101000010101,0.056651926345177676,-0.8109880332002102,1.0,1.0
100100001010000000000100101000010101,0.0472099386209814,-0.7388530201040999,1.0,1.0
100100001000000000000101101000001101,0.03975882230094612,-0.7287036029625051,1.0,1.0
100100001010000000000101101000001101,0.02981911672570959,-0.6670974743304074,1.0,1.0
101100001010000001000100101000000101,0.02981911672570959,-0.6670974743304074,1.0,1.0
101100001010000001000101101000001101,0.009939705575236527,-0.5706154278456519,1.0,1.0
101100001010000001000101001000011101,0.009939705575236527,-0.5706154278456519,1.0,1.0
101100001001000001000101101000001101,0.018883975448392553,-0.5832246426841103,1.0,1.0
100100001000000000000101101000001101,0.03975882230094612,-0.7287036029625051,1.0,1.0
100100001010000000000100101000000101,0.049698527876182653,-0.8028460464800199,1.0,1.0
100100001010000000000101011000001101,0.03718127421479805,-0.7239677883528386,1.0,1.0
100100001000000000000100101000000101,0.059638233451419186,-0.8937847873379051,1.0,1.0
101100001000000001000101101000001101,0.019879411150473054,-0.6150959726776,1.0,1.0
101100001010000001000101101000001101,0.009939705575236527,-0.5706154278456519,1.0,1.0
100100001010000000000101101000001101,0.02981911672570959,-0.6670974743304074,1.0,1.0
100100001000000000000101101000001101,0.03975882230094612,-0.7287036029625051,1.0,1.0
100100001010000000000101101000001101,0.02981911672570959,-0.6670974743304074,1.0,1.0
100100001010000000000101101000001101,0.02981911672570959,-0.6670974743304074,1.0,1.0
101100001000000001000101101000001101,0.019879411150473054,-0.6150959726776,1.0,1.0
100100001010000000000101101000011101,0.02832596317258884,-0.62726605832498,1.0,1.0
101100001010000001000100101000000101,0.02981911672570959,-0.6670974743304074,1.0,1.0
100100001000000000000101101000001101,0.03975882230094612,-0.7287036029625051,1.0,1.0
100100001000000000000100101000000101,0.059638233451419186,-0.8937847873379051,1.0,1.0
100100001000000000000101101000001101,0.03975882230094612,-0.7287036029625051,1.0,1.0
100100001010000000000100101000000101,0.049698527876182653,-0.8028460464800199,1.0,1.0
100100001010000000000100101000000101,0.049698527876182653,-0.8028460464800199,1.0,1.0
100100001000000000000100101000000101,0.059638233451419186,-0.8937847873379051,1.0,1.0
100000001000000100000100101000000101,0.09719102074521484,-0.914710810471064,1.0,0.9
100100001010000000000101101000001101,0.02981911672570959,-0.6670974743304074,1.0,1.0
100100001010000000000100101000000101,0.049698527876182653,-0.8028460464800199,1.0,1.0
101100001000000001000100101000000101,0.03975882230094612,-0.7287036029625051,1.0,1.0
101100001010000001000101111000001101,0.019182321900254106,-0.5959939265397625,1.0,1.0
100100001011000000000100101000000101,0.0472099386209814,-0.7388530201040999,1.0,1.0
101100001000000001000100101000000101,0.03975882230094612,-0.7287036029625051,1.0,1.0
101100001010000001000100101000000101,0.02981911672570959,-0.6670974743304074,1.0,1.0
101100001010000001000101101000001101,0.009939705575236527,-0.5706154278456519,1.0,1.0
101100001010000001000101101000001101,0.009939705575236527,-0.5706154278456519,1.0,1.0
101100001010000001000101101000001101,0.009939705575236527,-0.5706154278456519,1.0,1.0
101100001010000001000100101001000101,0.02832596317258884,-0.62726605832498,1.0,1.0
100100001010000000000101111000001101,0.03556598075249552,-0.6807454831661481,1.0,1.0
101100001000000001000100101000000101,0.03975882230094612,-0.7287036029625051,1.0,1.0
100100001010000000000101101000011101,0.02832596317258884,-0.62726605832498,1.0,1.0
100100001000000000000100101000000101,0.059638233451419186,-0.8937847873379051,1.0,1.0
100100001010000000000100101000000101,0.049698527876182653,-0.8028460464800199,1.0,1.0
100100001010000000000101101000001101,0.02981911672570959,-0.6670974743304074,1.0,1.0
100100001010000000000100101000010101,0.0472099386209814,-0.7388530201040999,1.0,1.0
100000001000000100000100101000000101,0.09719102074521484,-0.914710810471064,1.0,0.9
100000001000000100000100101000000101,0.09719102074521484,-0.914710810471064,1.0,0.9
101100001000000011000101101000001101,0.018883975448392553,-0.5832246426841103,1.0,1.0
101100001010000001000101101000001101,0.009939705575236527,-0.5706154278456519,1.0,1.0
101100001000000001000100101000000101,0.03975882230094612,-0.7287036029625051,1.0,1.0
101100001010000001000101011000001101,0.020053521808191102,-0.6251344947560631,1.0,1.0
101100001000000001000101101000001101,0.019879411150473054,-0.6150959726776,1.0,1.0
101100001000000001000100101000000101,0.03975882230094612,-0.7287036029625051,1.0,1.0
100100001010000000000100101000000101,0.049698527876182653,-0.8028460464800199,1.0,1.0
101100001010000001000101101000001101,0.009939705575236527,-0.5706154278456519,1.0,1.0
101100001010000001000100101000000101,0.02981911672570959,-0.6670974743304074,1.0,1.0
100100001010000000000100101000000101,0.049698527876182653,-0.8028460464800199,1.0,1.0
101100001000000001000100111000000101,0.043757810178616234,-0.7328520114198973,1.0,1.0
