Full Design,Target Ratio Objective,Stiffness Objective,Feasibility Score,Stability Score
100000001110000000000101011000001101,0.05854167588975816,-0.7188085616385832,1.0,1.0
100000001110000000000101001001001101,0.04759900120246823,-0.6427249660257898,1.0,1.0
101000001110000001000101001110001101,7.401486830834377E-18,-0.51748043253097,1.0,1.0
101000001111000001000101001100001101,0.012752964523288468,-0.5273067499823854,1.0,1.0
101000001111000001000101001110001101,0.0,-0.4970278668089063,1.0,1.0
100000001110000000000101011000001101,0.05854167588975816,-0.7188085616385832,1.0,1.0
101000001110000001000101011000001101,0.028967908786350843,-0.6207590411129783,1.0,1.0
101000001110000001000101011000001101,0.028967908786350843,-0.6207590411129783,1.0,1.0
101000001110000001000101011000001101,0.028967908786350843,-0.6207590411129783,1.0,1.0
101000001110000001000101011000001101,0.028967908786350843,-0.6207590411129783,1.0,1.0
100000001110000000000101011000001101,0.05854167588975816,-0.7188085616385832,1.0,1.0
100000001111000000000101011000001101,0.04915546417120757,-0.6727310451327506,1.0,1.0
101000001110000001000101011000001101,0.028967908786350843,-0.6207590411129783,1.0,1.0
100000001110000000000101011000001101,0.05854167588975816,-0.7188085616385832,1.0,1.0
101000001110000001000101011000001101,0.028967908786350843,-0.6207590411129783,1.0,1.0
101000001110000001000101011000001101,0.028967908786350843,-0.6207590411129783,1.0,1.0
101100001001000001000101001001001101,0.01913424069514642,-0.5755963881095091,1.0,1.0
101100001001000001000101001001001101,0.01913424069514642,-0.5755963881095091,1.0,1.0
101100001001000001000101001001001101,0.01913424069514642,-0.5755963881095091,1.0,1.0
100000001110000000000101011000001101,0.05854167588975816,-0.7188085616385832,1.0,1.0
100000001111000000000100011000000101,0.06428683200212386,-0.7531185803094718,1.0,1.0
100000001110000000000101011000001101,0.05854167588975816,-0.7188085616385832,1.0,1.0
100000001111000000000101011000001101,0.04915546417120757,-0.6727310451327506,1.0,1.0
100000001110000000000101011000001101,0.05854167588975816,-0.7188085616385832,1.0,1.0
101000001110000001000101001110001101,7.401486830834377E-18,-0.51748043253097,1.0,1.0
101000001111000001000101001100001101,0.012752964523288468,-0.5273067499823854,1.0,1.0
101000001110000001000101011000001101,0.028967908786350843,-0.6207590411129783,1.0,1.0
100000001111000000000100011000000101,0.06428683200212386,-0.7531185803094718,1.0,1.0
101000001110000001000101001110001101,7.401486830834377E-18,-0.51748043253097,1.0,1.0
100000001110000000000101011000001101,0.05854167588975816,-0.7188085616385832,1.0,1.0
101000001110000001000101011000001101,0.028967908786350843,-0.6207590411129783,1.0,1.0
101000001110000001000101011001001101,0.022323337080113168,-0.5830308146850385,1.0,1.0
100000001110000000000101011000001101,0.05854167588975816,-0.7188085616385832,1.0,1.0
101000001110000001000101011000001101,0.028967908786350843,-0.6207590411129783,1.0,1.0
100000001111000000000101011000001101,0.04915546417120757,-0.6727310451327506,1.0,1.0
101000001110000001000101011000001101,0.028967908786350843,-0.6207590411129783,1.0,1.0
101000001110000001000101011001001101,0.022323337080113168,-0.5830308146850385,1.0,1.0
100000001111000000000101011001001101,0.04219792334599747,-0.6288265802099167,1.0,1.0
100000001111000000000100011000000101,0.06428683200212386,-0.7531185803094718,1.0,1.0
101000001110000001000101011000001101,0.028967908786350843,-0.6207590411129783,1.0,1.0
101000001110000001000101011000001101,0.028967908786350843,-0.6207590411129783,1.0,1.0
100000001110000000000101011000001101,0.05854167588975816,-0.7188085616385832,1.0,1.0
101000001110000001000101011000001101,0.028967908786350843,-0.6207590411129783,1.0,1.0
100000001111000000000100011000000101,0.06428683200212386,-0.7531185803094718,1.0,1.0
100000001110000000000101001001001101,0.04759900120246823,-0.6427249660257898,1.0,1.0
101100001001000001000101011000001101,0.028691718631901134,-0.5959495352618651,1.0,1.0
100000001110000000000101011000001101,0.05854167588975816,-0.7188085616385832,1.0,1.0
100000001110000000000101011000001101,0.05854167588975816,-0.7188085616385832,1.0,1.0
100000001110000000000101011000001101,0.05854167588975816,-0.7188085616385832,1.0,1.0
101000001110000001000101011000001101,0.028967908786350843,-0.6207590411129783,1.0,1.0
100000001111000000000101011000001101,0.04915546417120757,-0.6727310451327506,1.0,1.0
100000001110000000000101011000001101,0.05854167588975816,-0.7188085616385832,1.0,1.0
101000001110000001000101001110001101,7.401486830834377E-18,-0.51748043253097,1.0,1.0
101000001110000001000101011000001101,0.028967908786350843,-0.6207590411129783,1.0,1.0
101000001110000001000101011000001101,0.028967908786350843,-0.6207590411129783,1.0,1.0
100000001110000000000101011000001101,0.05854167588975816,-0.7188085616385832,1.0,1.0
100000001111000000000101011000001101,0.04915546417120757,-0.6727310451327506,1.0,1.0
100000001110000000000101011000001101,0.05854167588975816,-0.7188085616385832,1.0,1.0
100000001111000000000100011000000101,0.06428683200212386,-0.7531185803094718,1.0,1.0
101000001110000001000101001001001101,0.01342021303555645,-0.5523349172814557,1.0,1.0
100000001111000000000101011000001101,0.04915546417120757,-0.6727310451327506,1.0,1.0
100000001111000000000101011001001101,0.04219792334599747,-0.6288265802099167,1.0,1.0
100000001110000000000101011000001101,0.05854167588975816,-0.7188085616385832,1.0,1.0
101000001110000001000101011001001101,0.022323337080113168,-0.5830308146850385,1.0,1.0
101000001111000001000101001100001101,0.012752964523288468,-0.5273067499823854,1.0,1.0
101100001001000001000101001001001101,0.01913424069514642,-0.5755963881095091,1.0,1.0
101000001110000001000101011000001101,0.028967908786350843,-0.6207590411129783,1.0,1.0
100000001111000000000101011001001101,0.04219792334599747,-0.6288265802099167,1.0,1.0
100100001001000000000101011000001101,0.058500822715255016,-0.6794006998092108,1.0,1.0
101100001001000001000101011001001101,0.026258547220221806,-0.59528749403815,1.0,1.0
101000001110000001000101011000001101,0.028967908786350843,-0.6207590411129783,1.0,1.0
101000001110000001000101011000001101,0.028967908786350843,-0.6207590411129783,1.0,1.0
101000001110000001000101011000001101,0.028967908786350843,-0.6207590411129783,1.0,1.0
101100001001000001000101011001001101,0.026258547220221806,-0.59528749403815,1.0,1.0
100000001110000000000101001001001101,0.04759900120246823,-0.6427249660257898,1.0,1.0
100000001110000000000101011000001101,0.05854167588975816,-0.7188085616385832,1.0,1.0
100000001110000000000101011000001101,0.05854167588975816,-0.7188085616385832,1.0,1.0
101000001110000001000101011000001101,0.028967908786350843,-0.6207590411129783,1.0,1.0
100000001110000000000101011000001101,0.05854167588975816,-0.7188085616385832,1.0,1.0
101100001001000001000101011001001101,0.026258547220221806,-0.59528749403815,1.0,1.0
101000001110000001000101011000001101,0.028967908786350843,-0.6207590411129783,1.0,1.0
100000001111000000000101011000001101,0.04915546417120757,-0.6727310451327506,1.0,1.0
101000001110000001000101011000001101,0.028967908786350843,-0.6207590411129783,1.0,1.0
100000001110000000000101011000001101,0.05854167588975816,-0.7188085616385832,1.0,1.0
101000001110000001000101011000001101,0.028967908786350843,-0.6207590411129783,1.0,1.0
101000001110000001000101011000001101,0.028967908786350843,-0.6207590411129783,1.0,1.0
100000001111000000000101011000001101,0.04915546417120757,-0.6727310451327506,1.0,1.0
101000001110000001000101011000001101,0.028967908786350843,-0.6207590411129783,1.0,1.0
101100001001000001000101011001001101,0.026258547220221806,-0.59528749403815,1.0,1.0
100000001110000000000101011000001101,0.05854167588975816,-0.7188085616385832,1.0,1.0
100000001110000000000101011000001101,0.05854167588975816,-0.7188085616385832,1.0,1.0
100000001111000000000101011000001101,0.04915546417120757,-0.6727310451327506,1.0,1.0
101000001110000001000101011000001101,0.028967908786350843,-0.6207590411129783,1.0,1.0
100000001110000000000101011000001101,0.05854167588975816,-0.7188085616385832,1.0,1.0
100000001111000000000100011000000101,0.06428683200212386,-0.7531185803094718,1.0,1.0
100000001110000000000101011000001101,0.05854167588975816,-0.7188085616385832,1.0,1.0
101000001110000001000101011000001101,0.028967908786350843,-0.6207590411129783,1.0,1.0
100000001110000000000101011000001101,0.05854167588975816,-0.7188085616385832,1.0,1.0
100000001111000000000101011000001101,0.04915546417120757,-0.6727310451327506,1.0,1.0
101000001110000001000101011000001101,0.028967908786350843,-0.6207590411129783,1.0,1.0
