Full Design,Target Ratio Objective,Stiffness Objective,Feasibility Score,Stability Score
101010001000000001000101101010001101,0.02869171863190114,-0.6127990667417599,1.0,1.0
101100001000000001000101001011001101,0.01646864342103375,-0.5706154278456519,1.0,1.0
101100001000000001000101001010011101,0.013420213035556442,-0.5523349172814556,1.0,1.0
101000001000000101000100101010010101,0.04915546417120757,-0.6727310451327506,1.0,1.0
101110001000000001000100101010010101,0.042197923345997465,-0.6288265802099167,1.0,1.0
101000001000000101000100101010010101,0.04915546417120757,-0.6727310451327506,1.0,1.0
101010001000000001000100101010010101,0.04915546417120757,-0.6727310451327506,1.0,1.0
101010001000000001000100101010010101,0.04915546417120757,-0.6727310451327506,1.0,1.0
101000001000000101000101101010001101,0.02896790878635085,-0.6207590411129784,1.0,1.0
101000001000000101000101101010001101,0.02896790878635085,-0.6207590411129784,1.0,1.0
101100001000000001000100101010000101,0.04759900120246822,-0.6427249660257898,1.0,1.0
101100001000000001000101101010001101,0.01342021303555645,-0.5523349172814558,1.0,1.0
101010001000000001000100101010000101,0.058500822715255016,-0.7016466066105526,1.0,1.0
101100001000000001000101101010001101,0.01342021303555645,-0.5523349172814558,1.0,1.0
101000001000000101000100101010010101,0.04915546417120757,-0.6727310451327506,1.0,1.0
101100001000000001000101001011001101,0.01646864342103375,-0.5706154278456519,1.0,1.0
101110001000000001000100101010010101,0.042197923345997465,-0.6288265802099167,1.0,1.0
101000001000000101000100101010010101,0.04915546417120757,-0.6727310451327506,1.0,1.0
100010001000000000000100101010010101,0.06428683200212386,-0.7531185803094718,1.0,1.0
101000001000000111000101101010001101,0.022323337080113182,-0.5830308146850386,1.0,1.0
101000001000000101000100101010010101,0.04915546417120757,-0.6727310451327506,1.0,1.0
101100001000000001000101001011001101,0.01646864342103375,-0.5706154278456519,1.0,1.0
101010001000000001000100101010000101,0.058500822715255016,-0.7016466066105526,1.0,1.0
101010001000000001000100101010010101,0.04915546417120757,-0.6727310451327506,1.0,1.0
101000001000000101000101101010001101,0.02896790878635085,-0.6207590411129784,1.0,1.0
101000001000000101000101101010001101,0.02896790878635085,-0.6207590411129784,1.0,1.0
101110001000000001000101101010001101,0.02197148929402432,-0.575771584634776,1.0,1.0
101000001000000111000101101010001101,0.022323337080113182,-0.5830308146850386,1.0,1.0
101100001000000001000101001011001101,0.01646864342103375,-0.5706154278456519,1.0,1.0
101100001000000001000101001011001101,0.01646864342103375,-0.5706154278456519,1.0,1.0
101110001000000001000101001011001101,0.02427542377913409,-0.5915075730073454,1.0,1.0
101100001000000001000101001011001101,0.01646864342103375,-0.5706154278456519,1.0,1.0
101000001000000101000101101010001101,0.02896790878635085,-0.6207590411129784,1.0,1.0
101000001000000101000100101010000101,0.058541675889758164,-0.718808561638583,1.0,1.0
101010001000000001000100101010000101,0.058500822715255016,-0.7016466066105526,1.0,1.0
101000001000000101000100101010000101,0.058541675889758164,-0.718808561638583,1.0,1.0
101010001000000001000100101010010101,0.04915546417120757,-0.6727310451327506,1.0,1.0
101000001000000101000101101010001101,0.02896790878635085,-0.6207590411129784,1.0,1.0
101110001000000001000101001011001101,0.02427542377913409,-0.5915075730073454,1.0,1.0
101100001000000001000101101010001101,0.01342021303555645,-0.5523349172814558,1.0,1.0
101110001000000001000100101010010101,0.042197923345997465,-0.6288265802099167,1.0,1.0
101010001000000001000100101010000101,0.058500822715255016,-0.7016466066105526,1.0,1.0
101010001000000001000100101010010101,0.04915546417120757,-0.6727310451327506,1.0,1.0
101100001010000001000101001001001101,0.01646864342103375,-0.5706154278456519,1.0,1.0
101010001000000001000100101010010101,0.04915546417120757,-0.6727310451327506,1.0,1.0
101010001000000001000100101010010101,0.04915546417120757,-0.6727310451327506,1.0,1.0
100010001000000000000100101010010101,0.06428683200212386,-0.7531185803094718,1.0,1.0
101000001000000101000100101010000101,0.058541675889758164,-0.718808561638583,1.0,1.0
101000001000000101000100101010000101,0.058541675889758164,-0.718808561638583,1.0,1.0
101000001000000101000100101010010101,0.04915546417120757,-0.6727310451327506,1.0,1.0
101110001000000001000101101001001101,0.026258547220221813,-0.59528749403815,1.0,1.0
101100001000000001000101101010001101,0.01342021303555645,-0.5523349172814558,1.0,1.0
101100001000000001000101001011001101,0.01646864342103375,-0.5706154278456519,1.0,1.0
101100001010000001000101001001001101,0.01646864342103375,-0.5706154278456519,1.0,1.0
101010001000000001000100101010010101,0.04915546417120757,-0.6727310451327506,1.0,1.0
100010001000000000000100101010010101,0.06428683200212386,-0.7531185803094718,1.0,1.0
101000001000000101000100101010000101,0.058541675889758164,-0.718808561638583,1.0,1.0
101000001000000101000101101010001101,0.02896790878635085,-0.6207590411129784,1.0,1.0
101100001000000001000101101001001101,0.019134240695146427,-0.5755963881095092,1.0,1.0
101000001000000101000100101010000101,0.058541675889758164,-0.718808561638583,1.0,1.0
101100001000000001000100101010000101,0.04759900120246822,-0.6427249660257898,1.0,1.0
101010001000000001000100101010010101,0.04915546417120757,-0.6727310451327506,1.0,1.0
101000001000000101000101101010001101,0.02896790878635085,-0.6207590411129784,1.0,1.0
101000001000000101000100101010010101,0.04915546417120757,-0.6727310451327506,1.0,1.0
101100001010000001000101001011001101,0.0,-0.5321342441674862,1.0,1.0
101000001000000101000100101010010101,0.04915546417120757,-0.6727310451327506,1.0,1.0
101000001000000101000101101010001101,0.02896790878635085,-0.6207590411129784,1.0,1.0
101010001000000001000100101010000101,0.058500822715255016,-0.7016466066105526,1.0,1.0
101010001000000001000101101010001101,0.02869171863190114,-0.6127990667417599,1.0,1.0
101010001000000001000100101010010101,0.04915546417120757,-0.6727310451327506,1.0,1.0
101100001000000001000101101010001101,0.01342021303555645,-0.5523349172814558,1.0,1.0
101000001000000101000100101010010101,0.04915546417120757,-0.6727310451327506,1.0,1.0
101100001010000001000101001011001101,0.0,-0.5321342441674862,1.0,1.0
101100001000000001000101101010001101,0.01342021303555645,-0.5523349172814558,1.0,1.0
101100001010000001000101001011001101,0.0,-0.5321342441674862,1.0,1.0
101100001000000001000101101001001101,0.019134240695146427,-0.5755963881095092,1.0,1.0
101000001000000101000100101010010101,0.04915546417120757,-0.6727310451327506,1.0,1.0
101000001000000101000100101010000101,0.058541675889758164,-0.718808561638583,1.0,1.0
101010001000000001000100101010000101,0.058500822715255016,-0.7016466066105526,1.0,1.0
101010001000000001000101101001001101,0.028691718631901134,-0.5959495352618651,1.0,1.0
101110001000000001000100101010010101,0.042197923345997465,-0.6288265802099167,1.0,1.0
101000001000000101000100101010000101,0.058541675889758164,-0.718808561638583,1.0,1.0
101010001000000001000100101010010101,0.04915546417120757,-0.6727310451327506,1.0,1.0
101100001000000001000101101010001101,0.01342021303555645,-0.5523349172814558,1.0,1.0
101100001000000001000101101010001101,0.01342021303555645,-0.5523349172814558,1.0,1.0
101000001000000101000100101010000101,0.058541675889758164,-0.718808561638583,1.0,1.0
101100001000000001000101101001001101,0.019134240695146427,-0.5755963881095092,1.0,1.0
101010001000000001000101101010001101,0.02869171863190114,-0.6127990667417599,1.0,1.0
101010001000000001000101101001001101,0.028691718631901134,-0.5959495352618651,1.0,1.0
101000001000000101000100101010000101,0.058541675889758164,-0.718808561638583,1.0,1.0
101010001000000001000100101010010101,0.04915546417120757,-0.6727310451327506,1.0,1.0
101010001000000001000101101010001101,0.02869171863190114,-0.6127990667417599,1.0,1.0
101100001000000001000101101001001101,0.019134240695146427,-0.5755963881095092,1.0,1.0
101100001000000001000101001011001101,0.01646864342103375,-0.5706154278456519,1.0,1.0
101100001000000001000100101010000101,0.04759900120246822,-0.6427249660257898,1.0,1.0
101100001010000001000101001011001101,0.0,-0.5321342441674862,1.0,1.0
101110001000000001000101001011001101,0.02427542377913409,-0.5915075730073454,1.0,1.0
101100001010000001000101001011001101,0.0,-0.5321342441674862,1.0,1.0
101010001000000001000100101010010101,0.04915546417120757,-0.6727310451327506,1.0,1.0
101000001000000101000100101010010101,0.04915546417120757,-0.6727310451327506,1.0,1.0
