Full Design,Target Ratio Objective,Stiffness Objective,Feasibility Score,Stability Score
101100001010000001000101101010001101,7.401486830834377E-18,-0.5174804325309701,1.0,1.0
101100001010000001000101101010001101,7.401486830834377E-18,-0.5174804325309701,1.0,1.0
101000001000000101000101101010001101,0.02896790878635085,-0.6207590411129784,1.0,1.0
101000001000000101000101101010001101,0.02896790878635085,-0.6207590411129784,1.0,1.0
101100001010000001000101101010001101,7.401486830834377E-18,-0.5174804325309701,1.0,1.0
101010001000000001000100101010010101,0.04915546417120757,-0.6727310451327506,1.0,1.0
101010001000000001000100101010010101,0.04915546417120757,-0.6727310451327506,1.0,1.0
101000001000000101000101101010001101,0.02896790878635085,-0.6207590411129784,1.0,1.0
101010001000000001000100101010000101,0.058500822715255016,-0.7016466066105526,1.0,1.0
101010001000000001000101101010001101,0.02869171863190114,-0.6127990667417599,1.0,1.0
101000001000000101000100101010000101,0.058541675889758164,-0.718808561638583,1.0,1.0
101000001000000101000101101010001101,0.02896790878635085,-0.6207590411129784,1.0,1.0
101100001010000001000101101010001101,7.401486830834377E-18,-0.5174804325309701,1.0,1.0
101100001010000001000101101010001101,7.401486830834377E-18,-0.5174804325309701,1.0,1.0
101000001000000101000100101010010101,0.04915546417120757,-0.6727310451327506,1.0,1.0
100010001000000000000100101010010101,0.06428683200212386,-0.7531185803094718,1.0,1.0
101000001000000101000100101010010101,0.04915546417120757,-0.6727310451327506,1.0,1.0
101000001000000101000101101010001101,0.02896790878635085,-0.6207590411129784,1.0,1.0
100010001000000000000100101010010101,0.06428683200212386,-0.7531185803094718,1.0,1.0
101010001000000001000100101010000101,0.058500822715255016,-0.7016466066105526,1.0,1.0
101100001000000001000101101010001101,0.01342021303555645,-0.5523349172814558,1.0,1.0
101100001010000001000101101010001101,7.401486830834377E-18,-0.5174804325309701,1.0,1.0
101100001010000001000101101010001101,7.401486830834377E-18,-0.5174804325309701,1.0,1.0
101010001000000001000100101010010101,0.04915546417120757,-0.6727310451327506,1.0,1.0
101100001000000001000101101010001101,0.01342021303555645,-0.5523349172814558,1.0,1.0
101010001000000001000100101010010101,0.04915546417120757,-0.6727310451327506,1.0,1.0
101100001000000001000101101010001101,0.01342021303555645,-0.5523349172814558,1.0,1.0
101010001000000001000101101010001101,0.02869171863190114,-0.6127990667417599,1.0,1.0
101010001000000001000100101010010101,0.04915546417120757,-0.6727310451327506,1.0,1.0
101010001000000001000100101010010101,0.04915546417120757,-0.6727310451327506,1.0,1.0
101010001000000001000100101010010101,0.04915546417120757,-0.6727310451327506,1.0,1.0
101010001000000001000100101010000101,0.058500822715255016,-0.7016466066105526,1.0,1.0
101100001010000001000101101010001101,7.401486830834377E-18,-0.5174804325309701,1.0,1.0
101100001000000001000101101010011101,0.012752964523288468,-0.5273067499823855,1.0,1.0
101000001000000101000101101010001101,0.02896790878635085,-0.6207590411129784,1.0,1.0
101100001000000001000101101010001101,0.01342021303555645,-0.5523349172814558,1.0,1.0
101000001000000101000101101010001101,0.02896790878635085,-0.6207590411129784,1.0,1.0
101000001000000101000101101010001101,0.02896790878635085,-0.6207590411129784,1.0,1.0
101100001010000001000101101010001101,7.401486830834377E-18,-0.5174804325309701,1.0,1.0
101000001000000101000100101010010101,0.04915546417120757,-0.6727310451327506,1.0,1.0
101000001000000101000100101010000101,0.058541675889758164,-0.718808561638583,1.0,1.0
101000001000000101000101101010001101,0.02896790878635085,-0.6207590411129784,1.0,1.0
101100001000000001000101101010001101,0.01342021303555645,-0.5523349172814558,1.0,1.0
101010001000000001000100101010010101,0.04915546417120757,-0.6727310451327506,1.0,1.0
101010001000000001000100101010010101,0.04915546417120757,-0.6727310451327506,1.0,1.0
101000001000000101000100101010010101,0.04915546417120757,-0.6727310451327506,1.0,1.0
101000001000000101000100101010010101,0.04915546417120757,-0.6727310451327506,1.0,1.0
101000001000000101000101101010001101,0.02896790878635085,-0.6207590411129784,1.0,1.0
101000001000000101000101101010001101,0.02896790878635085,-0.6207590411129784,1.0,1.0
101100001010000001000101101010001101,7.401486830834377E-18,-0.5174804325309701,1.0,1.0
101010001000000001000101101010011101,0.02778474446029736,-0.5920226362842449,1.0,1.0
100010001000000000000100101010010101,0.06428683200212386,-0.7531185803094718,1.0,1.0
101000001000000101000100101010000101,0.058541675889758164,-0.718808561638583,1.0,1.0
101010001000000001000100101010010101,0.04915546417120757,-0.6727310451327506,1.0,1.0
101000001000000101000100101010000101,0.058541675889758164,-0.718808561638583,1.0,1.0
101100001000000001000101101010001101,0.01342021303555645,-0.5523349172814558,1.0,1.0
101100001000000001000101101010001101,0.01342021303555645,-0.5523349172814558,1.0,1.0
101000001000000101000100101010010101,0.04915546417120757,-0.6727310451327506,1.0,1.0
101100001010000001000101101010001101,7.401486830834377E-18,-0.5174804325309701,1.0,1.0
101010001000000001000101101010001101,0.02869171863190114,-0.6127990667417599,1.0,1.0
101000001000000101000100101010000101,0.058541675889758164,-0.718808561638583,1.0,1.0
101000001000000101000101101010001101,0.02896790878635085,-0.6207590411129784,1.0,1.0
101000001000000101000100101010010101,0.04915546417120757,-0.6727310451327506,1.0,1.0
101100001010000001000101101010001101,7.401486830834377E-18,-0.5174804325309701,1.0,1.0
101010001000000001000100101010000101,0.058500822715255016,-0.7016466066105526,1.0,1.0
101000001000000101000101101010001101,0.02896790878635085,-0.6207590411129784,1.0,1.0
101100001010000001000101101010001101,7.401486830834377E-18,-0.5174804325309701,1.0,1.0
101000001000000101000100101010000101,0.058541675889758164,-0.718808561638583,1.0,1.0
101100001010000001000101101010001101,7.401486830834377E-18,-0.5174804325309701,1.0,1.0
101100001010000001000100101010010101,0.023908372950783532,-0.5603398789603063,1.0,1.0
101010001000000001000100101010010101,0.04915546417120757,-0.6727310451327506,1.0,1.0
101010001000000001000101101010001101,0.02869171863190114,-0.6127990667417599,1.0,1.0
101100001010000001000100101010010101,0.023908372950783532,-0.5603398789603063,1.0,1.0
101100001010000001000101101010001101,7.401486830834377E-18,-0.5174804325309701,1.0,1.0
101000001000000101000101101010001101,0.02896790878635085,-0.6207590411129784,1.0,1.0
101000001000000101000100101010000101,0.058541675889758164,-0.718808561638583,1.0,1.0
101000001110000001000101101010001101,2.960594732333751E-17,-0.5237066824622802,1.0,1.0
101000001000000011000101101010001101,0.013420213035556442,-0.5523349172814556,1.0,1.0
101000001000000101000100101010000101,0.058541675889758164,-0.718808561638583,1.0,1.0
101000001000000101000100101010000101,0.058541675889758164,-0.718808561638583,1.0,1.0
101110001000000001000100101010010101,0.042197923345997465,-0.6288265802099167,1.0,1.0
101010001000000001000100101010010101,0.04915546417120757,-0.6727310451327506,1.0,1.0
100010001000000000000100101010010101,0.06428683200212386,-0.7531185803094718,1.0,1.0
101000001110000001000101101010001101,2.960594732333751E-17,-0.5237066824622802,1.0,1.0
101010001000000001000101101010001101,0.02869171863190114,-0.6127990667417599,1.0,1.0
101010001000000001000100101010010101,0.04915546417120757,-0.6727310451327506,1.0,1.0
101000001000000101000101101010001101,0.02896790878635085,-0.6207590411129784,1.0,1.0
101100001010000001000100101010010101,0.023908372950783532,-0.5603398789603063,1.0,1.0
101000001000000101000101101010001101,0.02896790878635085,-0.6207590411129784,1.0,1.0
101000001000000101000100101010000101,0.058541675889758164,-0.718808561638583,1.0,1.0
101100001000000001000100101010000101,0.04759900120246822,-0.6427249660257898,1.0,1.0
101000001000000101000100101010000101,0.058541675889758164,-0.718808561638583,1.0,1.0
101100001000000001000101101010001101,0.01342021303555645,-0.5523349172814558,1.0,1.0
101010001000000001000101101010001101,0.02869171863190114,-0.6127990667417599,1.0,1.0
100010001000000000000100101010010101,0.06428683200212386,-0.7531185803094718,1.0,1.0
101000001000000101000100101010010101,0.04915546417120757,-0.6727310451327506,1.0,1.0
101100001010000001000101101010001101,7.401486830834377E-18,-0.5174804325309701,1.0,1.0
101100001000000001000100101010000101,0.04759900120246822,-0.6427249660257898,1.0,1.0
100010001000000000000100101010010101,0.06428683200212386,-0.7531185803094718,1.0,1.0
101100001000000001000101101010001101,0.01342021303555645,-0.5523349172814558,1.0,1.0
