Full Design,Target Ratio Objective,Stiffness Objective,Feasibility Score,Stability Score
100000001110000000000101011000001101,0.05854167588975816,-0.7188085616385832,1.0,1.0
100000001110000000000101011000001101,0.05854167588975816,-0.7188085616385832,1.0,1.0
101100001000000001000101101001001101,0.019134240695146427,-0.5755963881095092,1.0,1.0
101000001111000001000101011000001101,0.02778474446029735,-0.5920226362842447,1.0,1.0
100000001111000000000101011000001101,0.04915546417120757,-0.6727310451327506,1.0,1.0
100000001111000000000101011000001101,0.04915546417120757,-0.6727310451327506,1.0,1.0
101000001110000001000101011000001101,0.028967908786350843,-0.6207590411129783,1.0,1.0
100000001111000000000101011000001101,0.04915546417120757,-0.6727310451327506,1.0,1.0
100000001111000000000101011000001101,0.04915546417120757,-0.6727310451327506,1.0,1.0
101000001111000001000101011000001101,0.02778474446029735,-0.5920226362842447,1.0,1.0
101100001000000001000101101001001101,0.019134240695146427,-0.5755963881095092,1.0,1.0
100000001110000000000101011000001101,0.05854167588975816,-0.7188085616385832,1.0,1.0
100000001111000000000101011000001101,0.04915546417120757,-0.6727310451327506,1.0,1.0
101000001110000001000101011000001101,0.028967908786350843,-0.6207590411129783,1.0,1.0
101000001110000001000101011000001101,0.028967908786350843,-0.6207590411129783,1.0,1.0
100000001111000000000100011001000101,0.0566105150383647,-0.6942650518411632,1.0,1.0
100000001110000000000101011000001101,0.05854167588975816,-0.7188085616385832,1.0,1.0
101000001110000001000101011000001101,0.028967908786350843,-0.6207590411129783,1.0,1.0
100000001111000000000100011000000101,0.06428683200212386,-0.7531185803094718,1.0,1.0
100000001110000000000101011000001101,0.05854167588975816,-0.7188085616385832,1.0,1.0
100000001111000000000100011000000101,0.06428683200212386,-0.7531185803094718,1.0,1.0
100000001111000000000101011000001101,0.04915546417120757,-0.6727310451327506,1.0,1.0
100000001110000000000101011000001101,0.05854167588975816,-0.7188085616385832,1.0,1.0
101000001110000001000101011000001101,0.028967908786350843,-0.6207590411129783,1.0,1.0
100000001111000000000100011000000101,0.06428683200212386,-0.7531185803094718,1.0,1.0
101000001110000001000101011000001101,0.028967908786350843,-0.6207590411129783,1.0,1.0
100000001111000000000101011000001101,0.04915546417120757,-0.6727310451327506,1.0,1.0
100000001110000000000101011000001101,0.05854167588975816,-0.7188085616385832,1.0,1.0
100000001110000000000101011000001101,0.05854167588975816,-0.7188085616385832,1.0,1.0
101000001110000001000101011000001101,0.028967908786350843,-0.6207590411129783,1.0,1.0
100000001111000000000101011000001101,0.04915546417120757,-0.6727310451327506,1.0,1.0
100000001111000000000100011000000101,0.06428683200212386,-0.7531185803094718,1.0,1.0
100000001111000000000101011000001101,0.04915546417120757,-0.6727310451327506,1.0,1.0
100000001111000000000101011000001101,0.04915546417120757,-0.6727310451327506,1.0,1.0
100000001111000000000100011000000101,0.06428683200212386,-0.7531185803094718,1.0,1.0
101000001110000001000101011000001101,0.028967908786350843,-0.6207590411129783,1.0,1.0
100000001111000000000100011001000101,0.0566105150383647,-0.6942650518411632,1.0,1.0
101000001110000001000101011000001101,0.028967908786350843,-0.6207590411129783,1.0,1.0
101100001000000001000101101001001101,0.019134240695146427,-0.5755963881095092,1.0,1.0
101000001000000101000101101001001101,0.028967908786350836,-0.6036906420694299,1.0,1.0
100000001111000000000100011001000101,0.0566105150383647,-0.6942650518411632,1.0,1.0
100000001110000000000101011000001101,0.05854167588975816,-0.7188085616385832,1.0,1.0
100000001111000000000101011000001101,0.04915546417120757,-0.6727310451327506,1.0,1.0
100000001110000000000101011000001101,0.05854167588975816,-0.7188085616385832,1.0,1.0
100000001111000000000101011000001101,0.04915546417120757,-0.6727310451327506,1.0,1.0
101100001000000001000101101001001101,0.019134240695146427,-0.5755963881095092,1.0,1.0
101100001010000001000101001011001101,0.0,-0.5321342441674862,1.0,1.0
100000001111000000000101011000001101,0.04915546417120757,-0.6727310451327506,1.0,1.0
100000001111000000000101011000001101,0.04915546417120757,-0.6727310451327506,1.0,1.0
101100001000000001000101101001001101,0.019134240695146427,-0.5755963881095092,1.0,1.0
100000001111000000000100011000000101,0.06428683200212386,-0.7531185803094718,1.0,1.0
100000001110000000000101011000001101,0.05854167588975816,-0.7188085616385832,1.0,1.0
100000001111000000000101011000001101,0.04915546417120757,-0.6727310451327506,1.0,1.0
101000001110000001000101011000001101,0.028967908786350843,-0.6207590411129783,1.0,1.0
101000001110000001000101011001001101,0.022323337080113168,-0.5830308146850385,1.0,1.0
100000001110000000000101011000001101,0.05854167588975816,-0.7188085616385832,1.0,1.0
101000001110000001000101011000001101,0.028967908786350843,-0.6207590411129783,1.0,1.0
100000001110000000000101011000001101,0.05854167588975816,-0.7188085616385832,1.0,1.0
100000001110000000000101011000001101,0.05854167588975816,-0.7188085616385832,1.0,1.0
101000001111000001000101011000001101,0.02778474446029735,-0.5920226362842447,1.0,1.0
101100001000000001000101101001001101,0.019134240695146427,-0.5755963881095092,1.0,1.0
100000001111000000000101011000001101,0.04915546417120757,-0.6727310451327506,1.0,1.0
100000001111000000000101011000001101,0.04915546417120757,-0.6727310451327506,1.0,1.0
101000001110000001000101011000001101,0.028967908786350843,-0.6207590411129783,1.0,1.0
100000001111000000000101011000001101,0.04915546417120757,-0.6727310451327506,1.0,1.0
100000001110000000000101011000001101,0.05854167588975816,-0.7188085616385832,1.0,1.0
100000001111000000000101011000001101,0.04915546417120757,-0.6727310451327506,1.0,1.0
100000001111000000000100011000000101,0.06428683200212386,-0.7531185803094718,1.0,1.0
100000001111000000000101011000001101,0.04915546417120757,-0.6727310451327506,1.0,1.0
101000001011000001000101001001001101,0.013420213035556442,-0.5523349172814556,1.0,1.0
100000001110000000000101011000001101,0.05854167588975816,-0.7188085616385832,1.0,1.0
101000001110000001000101011000001101,0.028967908786350843,-0.6207590411129783,1.0,1.0
100000001111000000000100011000000101,0.06428683200212386,-0.7531185803094718,1.0,1.0
101100001000000001000101101001001101,0.019134240695146427,-0.5755963881095092,1.0,1.0
101000001110000001000101011000001101,0.028967908786350843,-0.6207590411129783,1.0,1.0
100000001111000000000101011000001101,0.04915546417120757,-0.6727310451327506,1.0,1.0
100000001111000000000101011000001101,0.04915546417120757,-0.6727310451327506,1.0,1.0
100000001110000000000101011000001101,0.05854167588975816,-0.7188085616385832,1.0,1.0
101000001110000001000101011000001101,0.028967908786350843,-0.6207590411129783,1.0,1.0
101100001010000001000101001011001101,0.0,-0.5321342441674862,1.0,1.0
101100001010000001000101001011001101,0.0,-0.5321342441674862,1.0,1.0
100000001110000000000101011000001101,0.05854167588975816,-0.7188085616385832,1.0,1.0
100000001111000000000100011000000101,0.06428683200212386,-0.7531185803094718,1.0,1.0
100000001111000000000100011000000101,0.06428683200212386,-0.7531185803094718,1.0,1.0
101000001110000001000101011000001101,0.028967908786350843,-0.6207590411129783,1.0,1.0
101000001110000001000101011000001101,0.028967908786350843,-0.6207590411129783,1.0,1.0
100000001011000000000101011000001101,0.058500822715255016,-0.7016466066105526,1.0,1.0
100000001111000000000101011000001101,0.04915546417120757,-0.6727310451327506,1.0,1.0
101100001010000001000101001011001101,0.0,-0.5321342441674862,1.0,1.0
101100001010000001000101001011001101,0.0,-0.5321342441674862,1.0,1.0
101100001000000001000101101001001101,0.019134240695146427,-0.5755963881095092,1.0,1.0
101000001110000001000101011000001101,0.028967908786350843,-0.6207590411129783,1.0,1.0
100000001111000000000101011000001101,0.04915546417120757,-0.6727310451327506,1.0,1.0
100000001110000000000101011000001101,0.05854167588975816,-0.7188085616385832,1.0,1.0
100000001110000000000101011000001101,0.05854167588975816,-0.7188085616385832,1.0,1.0
101000001110000001000101011000001101,0.028967908786350843,-0.6207590411129783,1.0,1.0
101000001110000001000101011000001101,0.028967908786350843,-0.6207590411129783,1.0,1.0
101000001110000001000101011000001101,0.028967908786350843,-0.6207590411129783,1.0,1.0
100000001111000000000101011000001101,0.04915546417120757,-0.6727310451327506,1.0,1.0
100000001111000000000100011000000101,0.06428683200212386,-0.7531185803094718,1.0,1.0
