Full Design,Target Ratio Objective,Stiffness Objective,Feasibility Score,Stability Score
101010001000000001000101001010011101,0.02896790878635085,-0.6207590411129783,1.0,1.0
100010001000000000000101001010011101,0.06377935557420876,-0.718808561638583,1.0,1.0
101000001011000001000101001010011101,2.960594732333751E-17,-0.5237066824622802,1.0,1.0
101010001000000001000101001010011101,0.02896790878635085,-0.6207590411129783,1.0,1.0
101010001000000001000101001010011101,0.02896790878635085,-0.6207590411129783,1.0,1.0
101010001000000001000101001010011101,0.02896790878635085,-0.6207590411129783,1.0,1.0
101110001000000001000100101010010101,0.042197923345997465,-0.6288265802099167,1.0,1.0
101010001000000001000101001010011101,0.02896790878635085,-0.6207590411129783,1.0,1.0
101100001000000001000101001010011101,0.013420213035556442,-0.5523349172814556,1.0,1.0
101010001000000001000100101010010101,0.04915546417120757,-0.6727310451327506,1.0,1.0
100010001000000000000100101010010101,0.06428683200212386,-0.7531185803094718,1.0,1.0
101000001011000001000101001010011101,2.960594732333751E-17,-0.5237066824622802,1.0,1.0
101010001000000001000100101010010101,0.04915546417120757,-0.6727310451327506,1.0,1.0
100010001000000000000100101010010101,0.06428683200212386,-0.7531185803094718,1.0,1.0
101010001000000001000100101010010101,0.04915546417120757,-0.6727310451327506,1.0,1.0
101010001000000001000101001010011101,0.02896790878635085,-0.6207590411129783,1.0,1.0
101010001000000001000101001010011101,0.02896790878635085,-0.6207590411129783,1.0,1.0
100010001000000000000100101010010101,0.06428683200212386,-0.7531185803094718,1.0,1.0
101010001000000001000100101010010101,0.04915546417120757,-0.6727310451327506,1.0,1.0
101010001000000001000100101010010101,0.04915546417120757,-0.6727310451327506,1.0,1.0
101010001000000001000100101010010101,0.04915546417120757,-0.6727310451327506,1.0,1.0
101010001000000001000101001010011101,0.02896790878635085,-0.6207590411129783,1.0,1.0
101010001000000001000100001010010101,0.058541675889758164,-0.7188085616385829,1.0,1.0
101010001000000001000101001010011101,0.02896790878635085,-0.6207590411129783,1.0,1.0
101010001000000001000100101010010101,0.04915546417120757,-0.6727310451327506,1.0,1.0
101010001000000001000100001010010101,0.058541675889758164,-0.7188085616385829,1.0,1.0
101010001000000001000101001010011101,0.02896790878635085,-0.6207590411129783,1.0,1.0
101010001000000001000101001010011101,0.02896790878635085,-0.6207590411129783,1.0,1.0
101000001011000001000101001010011101,2.960594732333751E-17,-0.5237066824622802,1.0,1.0
101010001000000001000100001010010101,0.058541675889758164,-0.7188085616385829,1.0,1.0
101010001000000001000100101010010101,0.04915546417120757,-0.6727310451327506,1.0,1.0
101010001000000001000100101010010101,0.04915546417120757,-0.6727310451327506,1.0,1.0
101010001000000001000100001010010101,0.058541675889758164,-0.7188085616385829,1.0,1.0
101010001000000001000100001010010101,0.058541675889758164,-0.7188085616385829,1.0,1.0
101010001000000001000101001010011101,0.02896790878635085,-0.6207590411129783,1.0,1.0
101010001000000001000100101010010101,0.04915546417120757,-0.6727310451327506,1.0,1.0
100010001000000000000100101010010101,0.06428683200212386,-0.7531185803094718,1.0,1.0
100010001000000000000100101010010101,0.06428683200212386,-0.7531185803094718,1.0,1.0
101010001000000001000100001010010101,0.058541675889758164,-0.7188085616385829,1.0,1.0
101010001000000001000100101010010101,0.04915546417120757,-0.6727310451327506,1.0,1.0
101000001011000001000101001010011101,2.960594732333751E-17,-0.5237066824622802,1.0,1.0
101000001000000111000101001100011101,0.026258547220221827,-0.59528749403815,1.0,1.0
101010001000000001000101001010011101,0.02896790878635085,-0.6207590411129783,1.0,1.0
101010001000000001000101001010011101,0.02896790878635085,-0.6207590411129783,1.0,1.0
101010001000000001000100101010010101,0.04915546417120757,-0.6727310451327506,1.0,1.0
101010001000000001000100101010010101,0.04915546417120757,-0.6727310451327506,1.0,1.0
101010001000000001000100001010010101,0.058541675889758164,-0.7188085616385829,1.0,1.0
101010001000000001000100101010010101,0.04915546417120757,-0.6727310451327506,1.0,1.0
100010001000000000000100101010010101,0.06428683200212386,-0.7531185803094718,1.0,1.0
101010001000000001000101001010011101,0.02896790878635085,-0.6207590411129783,1.0,1.0
101000001000000011000101001100011101,0.019134240695146427,-0.575596388109509,1.0,1.0
101000001011000001000101001010011101,2.960594732333751E-17,-0.5237066824622802,1.0,1.0
101000001000000101000100101010010101,0.04915546417120757,-0.6727310451327506,1.0,1.0
101010001000000001000100101010010101,0.04915546417120757,-0.6727310451327506,1.0,1.0
101010001000000001000101001010011101,0.02896790878635085,-0.6207590411129783,1.0,1.0
101000001011000001000101001010011101,2.960594732333751E-17,-0.5237066824622802,1.0,1.0
100010001000000000000101001010011101,0.06377935557420876,-0.718808561638583,1.0,1.0
101000001000000011000101001010011101,0.013420213035556428,-0.5523349172814555,1.0,1.0
100010001000000000000100101010010101,0.06428683200212386,-0.7531185803094718,1.0,1.0
100010001000000000000101001010011101,0.06377935557420876,-0.718808561638583,1.0,1.0
101010001000000001000100101010010101,0.04915546417120757,-0.6727310451327506,1.0,1.0
101000001000000011000100001010010101,0.04759900120246822,-0.6427249660257893,1.0,1.0
101010001000000001000100001010010101,0.058541675889758164,-0.7188085616385829,1.0,1.0
101100001011000001000101001010011101,7.401486830834377E-18,-0.4970278668089064,1.0,1.0
101110001000000001000101001010011101,0.022323337080113196,-0.5830308146850387,1.0,1.0
101010001000000001000101001010011101,0.02896790878635085,-0.6207590411129783,1.0,1.0
101010001000000001000101001010011101,0.02896790878635085,-0.6207590411129783,1.0,1.0
101010001000000001000101001010011101,0.02896790878635085,-0.6207590411129783,1.0,1.0
101010001000000001000100101010010101,0.04915546417120757,-0.6727310451327506,1.0,1.0
101010001000000001000100001010010101,0.058541675889758164,-0.7188085616385829,1.0,1.0
100010001000000000000100101010010101,0.06428683200212386,-0.7531185803094718,1.0,1.0
101010001000000001000100101010010101,0.04915546417120757,-0.6727310451327506,1.0,1.0
101010001000000001000100101010010101,0.04915546417120757,-0.6727310451327506,1.0,1.0
101010001000000001000101001010011101,0.02896790878635085,-0.6207590411129783,1.0,1.0
101010001000000001000101001010011101,0.02896790878635085,-0.6207590411129783,1.0,1.0
101010001000000001000100001010010101,0.058541675889758164,-0.7188085616385829,1.0,1.0
100010001000000000000100101010010101,0.06428683200212386,-0.7531185803094718,1.0,1.0
101010001000000001000100001010010101,0.058541675889758164,-0.7188085616385829,1.0,1.0
101010001000000001000100001010010101,0.058541675889758164,-0.7188085616385829,1.0,1.0
101010001000000001000100101010010101,0.04915546417120757,-0.6727310451327506,1.0,1.0
100010001000000000000100101010010101,0.06428683200212386,-0.7531185803094718,1.0,1.0
101010001000000001000100001010010101,0.058541675889758164,-0.7188085616385829,1.0,1.0
101010001000000001000100101010010101,0.04915546417120757,-0.6727310451327506,1.0,1.0
101010001000000001000100001010010101,0.058541675889758164,-0.7188085616385829,1.0,1.0
100010001000000000000100101010010101,0.06428683200212386,-0.7531185803094718,1.0,1.0
101000001000000011000101001100011101,0.019134240695146427,-0.575596388109509,1.0,1.0
101010001000000001000100101010010101,0.04915546417120757,-0.6727310451327506,1.0,1.0
101110001000000001000101001010011101,0.022323337080113196,-0.5830308146850387,1.0,1.0
101010001000000001000100101010010101,0.04915546417120757,-0.6727310451327506,1.0,1.0
101010001000000001000100101010010101,0.04915546417120757,-0.6727310451327506,1.0,1.0
101010001000000001000100101010010101,0.04915546417120757,-0.6727310451327506,1.0,1.0
101010001000000001000100101010010101,0.04915546417120757,-0.6727310451327506,1.0,1.0
101010001000000001000100001010010101,0.058541675889758164,-0.7188085616385829,1.0,1.0
101010001000000001000101001010011101,0.02896790878635085,-0.6207590411129783,1.0,1.0
100010001000000000000100101010010101,0.06428683200212386,-0.7531185803094718,1.0,1.0
100010001000000000000100101010010101,0.06428683200212386,-0.7531185803094718,1.0,1.0
101010001000000001000101001010011101,0.02896790878635085,-0.6207590411129783,1.0,1.0
101010001000000001000100101010010101,0.04915546417120757,-0.6727310451327506,1.0,1.0
101000001000000011000100001010010101,0.04759900120246822,-0.6427249660257893,1.0,1.0
101010001000000001000100101010010101,0.04915546417120757,-0.6727310451327506,1.0,1.0
